9996 16
the -0.010743411 -0.057842907 -0.061168104 -0.07338685 -0.006660103 -0.00577644 0.032209538 -0.004461605 0.00023611102 -0.0524029 0.0206581 0.108524166 0.039607882 -0.06017347 -0.056674525 -0.013511725
and 0.007844955 0.03537211 -0.09170377 0.05366941 0.06009872 0.02536167 -0.08554403 0.022996569 -0.008744272 -0.09224828 -0.011078267 0.053829066 0.06064564 -0.04722865 -0.019331722 -0.080967665
a 0.0036575592 -0.03434159 0.05408922 -0.05422852 -0.122311026 -0.045142833 0.041939918 -0.05406284 -0.06925418 -0.024034586 -0.0037015171 0.0141939595 0.0884174 -0.045586333 -0.024727803 0.036500297
of 0.04424731 -0.04738654 -0.052955154 -0.101965114 0.03854779 -0.06929521 -0.03824382 -0.08113827 0.038038254 0.029447623 0.050196137 0.039573025 -0.03633917 0.021496465 -0.00418713 0.016505552
to -0.031794325 0.022850083 0.048670556 -0.054585453 0.047350336 0.051806994 0.04091835 -0.059402917 0.066144705 0.05160862 0.0078053954 0.021213032 0.05464631 0.016004752 0.038874328 -0.042893305
is 0.022263758 0.039265513 0.014585966 -0.11173217 0.084276885 -0.123081386 -0.07351431 0.03659918 -0.07058643 -0.02535786 0.035393745 0.09437399 -0.0014963212 0.041257292 -0.03780816 0.06618317
br 0.030723752 -0.001390226 -0.023721142 -0.019921618 0.0815291 -0.025616812 0.01831134 -0.012294708 0.0024373922 -0.0581895 -0.044120833 -0.009180219 0.06416842 -0.015049568 -0.030029226 0.046651486
in 0.046608735 -0.03417442 0.037499104 -0.016888576 0.054964066 0.029063052 0.016968375 -0.0016382996 0.010602765 0.0010859083 -0.028530156 -0.0040632924 -0.008392229 0.035218198 0.049143437 0.0018621228
it 0.06428753 0.05815358 0.026404833 0.045556005 0.04867538 -0.04421232 0.019509126 -0.09879858 0.013888681 -0.07080548 -0.06856326 0.040188137 0.055902615 0.009538776 -0.027901119 0.002247482
i 0.027449405 0.014161487 -0.08402127 -0.033947874 0.080726266 0.0007679803 0.015581658 0.0078065814 -0.035589337 0.0072124302 0.06302356 0.0007993285 0.08113509 -0.06608379 0.007591047 0.027065743
this -0.06073958 -0.03219392 0.03657749 0.03684 0.029529816 -0.053268675 0.04560146 0.03239654 0.02130548 -0.10796022 0.029059695 0.01551697 0.025196834 0.014797011 -0.03366721 0.01746984
that 0.03315784 -0.01113756 0.007924084 -0.0042848685 0.01461366 -0.03088905 -0.027808717 0.062799476 -0.034356896 0.007417147 -0.028753048 0.03514729 -0.04245398 0.004109513 -0.011253911 0.00811452
was -0.062242817 0.017387126 -0.061499204 -0.021859879 -0.07259045 0.01342274 -0.12917633 -0.013267569 0.0664081 0.005971593 -0.055549636 0.07588475 0.010261971 0.055395115 0.061725035 -0.039136793
as 0.05274157 -0.03144546 -0.0850262 0.113712244 0.054770842 -0.028074967 0.12316888 -0.089194775 -0.013030354 -0.018863857 -0.07684804 0.09643113 0.13914612 -0.026526956 -0.025589962 -0.07080193
for 0.010771639 -0.039290488 0.0047240034 -0.0029897625 0.08625605 -0.010230708 -0.005244392 0.04020537 -0.0018717297 -0.056054916 0.0041303947 0.051125478 -0.02447961 0.026644778 0.0622684 -0.03633109
with 0.0061182203 -0.058099438 0.050767962 0.03956598 0.015117796 -0.07155502 -0.08473617 0.036101732 -0.011043057 -0.02834161 0.09149205 0.07536117 0.10322924 0.025630707 0.041689113 -0.041769918
movie -0.039510954 -0.03540652 -0.03910978 0.061698813 0.021902738 -0.018993927 0.033522237 -0.0784658 -0.0019387247 0.030792655 0.022110555 0.032995403 -0.010256823 -0.060000822 0.016621063 0.033686142
but -0.0050328677 -0.014781929 -0.01620604 0.10775634 -0.023395738 0.035743855 -0.050931662 -0.011557477 0.008054406 0.019757409 -0.0079355035 0.028150326 0.015539232 -0.030175405 0.052138057 -0.04956291
film -0.004501358 -0.02281897 -0.029193996 -0.001782396 -0.039813906 0.066528864 -0.101117566 -0.073112436 0.0024934257 -0.04698922 0.0040126 -0.020033227 -0.008374504 -0.049151532 -0.0565212 0.008088497
on -0.039974093 0.060064178 -0.0124531 0.0026729126 -0.039402146 -0.008397602 0.10846209 -0.027340421 0.057751507 -0.021703804 0.02402619 0.015371357 0.0690584 0.0124563575 0.026694683 0.058323998
not -0.059377234 -0.05044586 -0.03925229 -0.037781935 -0.035359293 -0.012750809 0.013866459 0.03271975 0.0014156825 0.0409443 -0.027380176 -0.009674396 0.0169244 0.02707632 -0.0017124537 0.011173735
you 0.021877335 -0.004716134 -0.009233591 0.02872268 -0.04660195 -0.0011518704 0.042741843 -0.065510824 -0.077933334 -0.013106918 0.07682522 -0.04270406 -0.05554476 0.011019213 -0.018859338 -0.028215252
are 0.019093053 -0.053889785 -0.009505603 0.024455117 -0.069206424 0.03493926 -0.010501891 0.04177272 0.0043755146 -0.002571 0.0051567657 0.022049066 0.040411144 0.08797789 0.02777819 -0.058368746
his 0.017871289 -0.021795247 0.05133389 -0.011634561 -0.06026605 -0.08637379 0.083974674 0.013142452 -0.0018340164 -0.08001438 -0.016243128 -0.008138685 -0.06738342 -0.019646931 -0.047050595 -0.06552759
have -0.050629072 0.0022180376 -0.052454576 -0.05732075 -0.025372814 0.034453593 -0.063756086 0.013135729 0.019245395 -0.04359871 -0.02858168 0.025686795 0.04927015 0.039361384 -0.009379952 -0.008388131
he -0.03356183 0.022304317 -0.020694882 0.053234212 -0.060472693 0.01234982 -0.05831393 0.01191085 0.0058465777 0.011776645 0.048616078 -0.02461998 0.014827525 -0.034609053 -0.046895467 -0.028078657
be -0.009985692 -0.040627167 -0.0053444263 -0.02375572 0.042930096 -0.033445157 -0.012554286 -0.00019370875 -0.023525033 0.007586408 -0.049978815 0.075911395 -0.034587376 -0.034883972 -0.05404123 0.04813643
one -0.050381437 -0.038994353 -0.032450624 0.03282448 -0.07484201 -0.035268325 -0.07516006 -0.077750064 -0.0737115 0.03564145 0.014776544 0.025380976 0.045371056 0.011179624 -0.048636008 0.10619972
all 0.06796386 0.026555933 0.041536037 0.0036527803 0.12807645 0.04860151 -0.084435984 0.020968756 0.015961526 -0.0055805496 -0.051874515 0.04080583 0.04748552 0.04556035 -0.008277108 0.026678221
at -0.04554257 -0.04117303 -0.03057609 0.09371811 0.1665293 0.012500018 0.025511581 0.053387232 0.0145761585 -0.016145976 -0.0002274171 0.027146671 0.008858144 -0.04187841 0.04530047 -0.008371348
by -0.03150117 0.050120775 -0.023309186 0.06330954 0.013192643 0.05530942 -0.046438094 0.060046453 0.009853002 -0.013747862 -0.04228557 -0.00023850071 0.074509166 0.019199861 -0.009953589 -0.025538303
an 0.010438116 0.0077567482 0.035293292 -0.11631515 -0.072012365 0.04107542 -0.019718308 0.021595087 0.041507255 -0.036317494 -0.051730514 -0.023643415 0.017301623 0.029429993 -0.022206545 -0.095016666
they -0.023499452 0.00013129656 -0.03790966 -0.0021623608 0.012258124 0.054972813 0.06805694 -0.029502476 0.05295711 -0.009751157 0.005013688 0.013453135 -0.03433368 0.034963798 0.05025591 0.050401926
who 0.083285846 0.016886858 -0.0015669512 0.004813389 0.12735415 -0.016789038 0.0100073675 -0.010739535 -0.021807311 -0.02079611 -0.022385683 0.10335616 -0.0046883645 0.03807557 -0.05753981 -0.08342672
so -0.07723448 -0.052037854 -0.062011465 -0.03206558 -0.096779466 -0.04052298 -0.055060588 -0.060762566 0.05692748 -0.07033646 -0.05353854 0.042231653 -0.031802066 0.008383525 -0.045840323 -0.049252175
from 0.026425267 0.014241692 -0.024349093 -0.063988544 0.06716486 -0.036674608 -0.06468368 0.014154102 -0.02891057 -0.020824956 0.047637265 0.07907285 -0.04283932 -0.01784236 0.05713636 -0.023068298
like -0.037819877 -0.0061675343 -0.02898985 -0.019576866 0.07113419 0.04026157 -0.022491368 0.015862465 0.06534261 -0.007519901 0.03492256 -0.04150357 0.05233955 -0.005196863 -0.041826285 -0.0066953837
her -0.0047833137 0.004619222 0.00737072 -0.037546244 0.07267576 -0.031289227 -0.0651584 -0.035588738 -0.027564593 0.030281078 0.046711624 0.020351833 -0.04786356 0.0073933657 -0.010633623 0.017503805
or -0.03412538 0.039428063 0.034693643 0.03173685 -0.1341368 0.020631978 -0.0660924 -0.054572213 0.021066813 0.025562827 -0.05133528 -0.018049853 0.04554905 0.022497235 0.0058686747 0.04907581
just -0.03430129 -0.046692073 0.008023419 0.029772306 -0.11136765 -0.08011191 -0.0030961833 0.07110702 -0.014816415 0.047099557 -0.012684518 -0.051823653 0.067936555 0.013309145 0.05454196 -0.039023507
about 0.059364323 0.05040937 -0.040030498 0.025091888 -0.09817112 -0.02835642 0.031297524 -0.039186716 0.03815612 0.02011205 0.01425293 0.008562669 0.02585412 0.009755232 0.0071303556 0.012841609
it's 0.021338396 -0.012354816 -0.024780616 -0.03892218 0.084721304 -0.075834654 -0.022499135 0.015979925 -0.016769998 -0.10127898 0.03720293 0.10205911 0.07759017 -0.06565394 -0.0845103 0.03870693
out -0.038707618 0.048869886 0.019319365 0.018438539 0.018990993 0.011803269 -0.08021159 0.036766946 0.049528074 0.03298944 -0.031383213 -0.03466277 0.010379456 -0.036288228 -0.009359263 -0.09029903
has -0.0006871411 -0.046836235 0.021306425 -0.036630977 0.009119079 0.04898703 0.016648684 0.015971806 0.00030101129 0.008313635 0.020263359 -0.030665107 0.0155831985 -0.04471081 -0.07818056 0.009046246
if -0.061820786 0.042791083 0.0008603249 -0.047189523 0.0048096008 -0.035732668 -0.0336445 0.017427295 0.008038358 0.03506886 -0.06898954 -0.034958582 0.01452877 0.013780635 0.036689695 -0.04887483
some -0.03550124 -0.033526983 0.024907941 0.001447908 -0.06382174 -0.0062048947 0.051134087 0.0067512523 -0.026203563 -0.01776246 0.046170454 0.016022928 -0.03502798 -0.007329905 0.033131167 0.039305083
there -0.022767154 0.017534703 -0.041095022 -0.088058874 0.039377626 0.028196553 0.0029067888 -0.00013516784 -0.012673586 0.01262624 -0.042913187 0.025686463 0.037195522 -0.02609244 0.04460837 -0.0825461
what 0.041400746 0.0065648244 0.054206565 -0.045835126 -0.072305396 0.019030327 -0.041470528 0.016929518 -0.0034980027 0.0064569553 0.038626 0.025137702 -0.06365935 0.029900076 -0.01575286 0.03866409
good 0.024988655 -0.042341985 0.018830603 0.040605802 -0.11224169 0.008957258 -0.02616918 -0.036490664 -0.07940286 -0.003380594 0.05625511 -0.020952195 -0.048279054 -0.051424783 -0.034340866 0.02514772
more 0.06792584 -0.0324994 -0.06508288 0.011949984 0.006908476 0.0033798073 -0.008642342 -0.053204175 0.016881902 0.0067969672 -0.039981216 0.011456136 0.020321077 -0.07656841 0.02188488 -0.048594087
when 0.042704776 -0.011123695 0.0023431515 0.013430595 0.009144153 0.020712389 0.076308936 0.0010243696 -0.004948001 0.044073697 -0.018443977 0.008693063 -0.012713277 0.03233131 -0.06004927 -0.056258045
very 0.00024795052 0.0018366685 0.064077854 -0.00018450734 -0.05590589 -0.1435084 0.009599076 -0.038033467 0.08493992 -0.082872905 -0.01449117 0.1201517 0.071911775 -0.021771172 -0.14989305 -0.02442724
up -0.04815414 -0.035915706 -0.013003975 0.0043670507 -0.015722185 0.0038452519 -0.058199227 -0.0072964346 0.00904172 -0.06546037 0.012216886 0.045342233 0.045924593 -0.030519987 -0.006897391 0.0073348978
no -0.08721513 -0.043224074 0.0017977299 -0.075369164 -0.018389845 0.04495612 0.060167693 -0.020621419 0.059548255 0.11588012 -0.0526387 -0.035146095 0.062035 0.035496578 0.052272454 -0.022294104
time 0.015626134 0.0022063542 -0.007878757 -0.057953306 0.12671831 0.08688548 0.047484506 -0.05647394 -0.032545753 0.0030853671 -0.08340281 0.005892223 -0.075875215 0.03809398 -0.00057209143 0.03857192
she -0.05370992 0.039932366 0.041704398 -0.01425705 -0.10399421 -0.021127436 -0.051079486 0.030970423 0.058735866 0.026351506 -0.01813252 -0.024253245 0.016065026 -0.020222673 -0.069325194 0.032076128
even -0.053720076 -0.0525874 -0.014876201 -0.09019316 -0.08910537 -0.009217519 -0.07778503 0.05717208 0.021221103 -0.03503703 -0.07593384 -0.0070487107 0.012345847 0.053938407 0.04985386 -0.0146742165
my 0.051282287 0.0015072844 0.03345159 -0.13246952 0.055843472 0.060513888 0.03597935 -0.057098888 0.008170411 -0.02614336 0.05084446 -0.034018345 -0.00039938377 -0.028438399 0.010460304 -0.02520522
would 0.0015603206 -0.06421489 -0.025884215 -0.03014208 0.08329002 -0.10966021 -0.01993086 -0.006607272 0.042255744 -0.022267729 -0.039610934 0.027544487 0.04077235 0.04309738 -0.023520669 -0.030406695
which 0.040679708 -0.0081895115 -0.0083293775 -0.038521223 0.056284893 -0.021753082 0.06862027 -0.040031403 0.04936335 0.035358574 0.01109488 -0.014073868 -0.052267667 -0.03307454 -0.03344716 0.060426436
only -0.040628992 -0.025928497 -0.04066023 -0.032633364 -0.10033663 -0.033654176 0.07860625 0.044822875 0.034291316 0.026200602 -0.017224614 -0.04604885 -0.037014347 -0.030958768 -0.014980693 0.014634103
story 0.06497197 0.057177532 -0.06799789 0.08794386 0.058275063 0.04291175 0.05402414 0.064498365 0.08242875 -0.020789435 -0.03979736 0.030456848 0.02242865 0.008771696 0.059467606 -0.028032808
really 0.01638584 -0.06814382 -0.002565855 -0.05495525 -0.04075535 -0.106472835 -0.029161355 0.041781712 -0.014529331 0.012142029 -0.021020697 -0.005973743 0.055950925 -0.011640213 -0.058083583 0.07062506
see -0.0032258495 -0.057429187 -0.023051871 -0.020200446 -0.08604199 -0.000121573365 -0.035196763 -0.07081289 0.016643086 -0.0147013115 0.035462357 -0.015831899 -0.056346323 -0.03139306 -0.060311362 -0.05460618
their -0.025690783 -0.03279104 -0.023368368 -0.023221364 0.030458912 -0.06704075 -0.048861515 -0.0037038147 0.051261783 -0.06091639 -0.047235396 -0.0016239146 -0.0051045506 -0.059847914 0.012317711 0.04378921
had 0.019817486 -0.039074443 0.058511596 0.06606976 -0.050636448 -0.06544123 0.009025632 0.055573378 0.014963023 0.032617584 0.029335795 -0.007196728 0.017930083 -0.03850281 0.053498402 -0.015892176
can 0.027026065 0.010441229 -0.0139284525 0.02035855 0.026597362 0.021200156 -0.057828464 -0.033645853 0.071537495 0.042222314 0.0425308 -0.066948 0.03244882 -0.024768922 -0.0331249 -0.0032932118
were -0.044665337 0.039451435 0.038307708 0.059001308 -0.04525338 0.024515146 0.02361164 0.033278804 0.015724782 -0.075247325 0.011985505 -0.00071846286 0.009504893 -0.008664167 0.03800995 0.07748247
me 0.06479223 0.010872428 0.02732846 -0.08279305 0.04755497 -0.069798306 0.01980075 -0.028592486 0.017745242 0.04050717 -0.026255112 0.02714284 0.02806299 -0.038186993 0.04394223 -0.027563656
well 0.07210831 0.035804067 0.04761873 -0.06178641 0.035793956 0.11453487 0.032234956 0.0028183232 -0.019089444 -0.02523215 0.09239754 0.06553877 -0.0770859 -0.05495401 -0.11467866 0.028026655
than -0.010604942 -0.01680955 0.022869479 -0.02158949 0.0745595 0.0573085 -0.038134865 -0.061143685 0.01269808 -0.0047291783 -0.04212885 0.008509125 -0.012283656 0.062935226 0.019950897 -0.04721315
we 0.0061445176 -0.033781145 -0.042362496 -0.019834992 0.06046087 0.06837823 0.017585697 -0.043484844 0.021434966 0.03636778 0.01889313 -0.023310475 -0.05860107 -0.052505024 -0.059267562 -0.015327014
much 0.036290973 -0.03279573 0.04335334 -0.01595217 -0.024227163 -0.015756592 0.02581901 0.07154577 0.022291478 -0.007482846 -0.004011457 -0.04621473 0.036377445 -0.043908704 0.032461025 -0.00058921054
been -0.07057926 0.010474833 -0.017866865 0.020403385 -0.05661888 -0.011934171 -0.07868335 0.05941518 0.016808024 0.077744536 0.0040170327 -0.039619524 0.06248259 0.06538074 0.009682554 0.03227979
bad -0.0994359 -0.07187935 -0.10566053 -0.08922462 0.0033310154 -0.04607735 -0.033023108 0.09972422 0.051145524 -0.026587524 -0.09274536 -0.057939067 0.03373859 0.11243262 0.11524431 0.00036122787
get 0.05945946 0.03450293 -0.018283514 0.038441464 -0.06540487 -0.023813317 0.05903832 0.0404367 -0.030799683 -0.01636515 -0.016101895 0.0006886273 0.010815214 0.02449513 -0.015156513 -0.023740714
will 0.058464117 -0.020494394 0.09006629 0.054710068 0.028431812 -0.09841477 -0.01572361 -0.06299495 0.049365245 -0.01755684 -0.006241173 0.038937952 0.016513659 -0.035717472 -0.10450948 -0.018477974
do -0.035470217 -0.05774257 -0.042834003 -0.04436575 -0.004949256 0.025541505 -0.028724087 0.029406385 -0.019383773 0.03866727 -0.036582008 0.020739086 0.027303685 -0.020579372 -0.0055305474 0.024496447
also 0.07125932 0.0014309628 0.0680113 0.012702513 -0.16021177 -0.12991013 -0.03218243 -0.14021344 -0.019334542 -0.10071889 0.09001907 0.13310935 0.04781685 -0.027348619 -0.09188668 0.00856843
into 0.02436239 -0.04974328 0.031957768 0.017095175 0.06606603 0.016174104 -0.0091230245 -0.013498342 -0.047374755 0.0050601796 -0.0022765056 -0.011634455 0.0010356213 0.03506083 -0.05088672 -0.00937069
people 0.011284233 0.001503984 0.061417785 0.068151936 -0.059636325 0.008526507 0.0071582105 0.040457577 0.009961709 -0.014658078 0.01579777 -0.02096788 -0.044684585 0.038627133 0.030694785 -0.05127394
other 0.049988434 0.020906603 -0.007916153 -0.0379635 0.0429322 -0.04279749 -0.039252777 0.011586968 0.010284043 -0.050450012 0.00081315474 0.048639685 -0.04353313 -0.02275206 -0.0021152252 -0.058937795
first 0.019031307 0.05234954 0.008399452 -0.045086104 0.032006055 0.022054825 -0.04538003 0.0249538 -0.04247268 0.024843585 0.0062746448 0.057656094 0.036414307 0.01566701 -0.039871804 -0.03263269
great 0.091942176 0.1293156 0.13452026 -0.022008857 0.12444731 0.1279963 -0.09197447 0.12242675 -0.07861953 -0.104775935 0.12926885 0.08773483 -0.08689246 -0.05648637 -0.14087634 -0.06903157
because -0.009871297 -0.043564394 -0.04723283 0.036624696 -0.037891984 -0.06727851 -0.06727663 0.014873487 -0.007944896 0.042213358 -0.026122848 0.026975682 0.039559297 -0.030862274 -0.042782873 0.027469754
how -0.032521572 0.0005759483 -0.08794934 -0.08911489 0.03100528 -0.059518687 -0.10695892 0.073620595 0.054849774 0.02027704 -0.014305439 -0.03941644 -0.055043682 0.012990853 0.018284833 -0.037725452
him 0.031809133 -0.038081523 -0.030832503 0.03504385 -0.075114235 -0.013786243 -0.015550603 -0.014393001 -0.030974485 0.062795825 0.04439054 -0.057534687 -0.018813029 0.0057470687 -0.052189123 -0.028568888
most 0.021559255 0.018226182 0.00267537 -0.062082402 -0.021057783 0.087736584 -0.08904785 -0.041472606 -0.06855326 -0.06620161 0.10775069 0.031107932 0.057197206 -0.009267306 -0.046078045 -0.034047328
don't -0.019020826 -0.0019307598 0.017472861 -0.033438947 -0.033519417 -0.009309843 -0.010781758 -0.061323874 0.037991717 0.012625626 -0.020744124 0.0053468724 -0.025393218 0.013244473 0.036846295 -0.012179098
made -0.02365958 -0.03248965 0.012556764 0.0027397834 0.06895226 -0.022331795 -0.08626124 -0.010067472 0.008187025 -0.050109334 -0.039769053 0.04550108 0.04742885 -0.05001813 0.04165185 -0.073250905
its -0.025464479 0.02501691 -0.012873824 -0.10395033 -0.03207464 -0.014697717 -0.0551972 -0.07626411 0.021608142 -0.041212417 0.038755406 0.030651653 0.045074545 -0.055525806 -0.0952046 -0.04278103
then -0.068006985 -0.031548135 -0.0029356512 -0.021485202 0.035486627 0.016310494 0.018111022 0.05972939 0.012284547 0.06922662 -0.0018475363 -0.03244133 -0.022552582 0.018052274 0.019519288 0.020707384
way 0.034680475 0.026373047 0.027549999 0.0456225 0.034497347 0.073776305 -0.022606239 -0.03216969 0.0017808671 0.036370307 0.07850454 0.05467507 0.027131705 -0.081233576 0.02244159 0.017033676
make -0.062418543 -0.00448131 -0.045700595 0.009047708 0.07065138 -0.05805225 -0.06042208 0.03505081 0.015356141 0.04256856 -0.023771841 -0.039744355 0.05996874 0.069493085 0.0720762 -0.02404965
them 0.0064880284 0.046845168 0.023780257 -0.040635053 -0.040912673 0.037070397 -0.026401088 -0.01005802 0.06605808 -0.003770636 -0.095672674 0.0060870512 -0.04023791 0.022109877 -0.03159345 -0.013670149
too -0.009054506 -0.04831329 -0.05382556 -0.02144835 0.03316747 -0.012049579 0.01653877 0.042436738 0.027913962 -0.036275283 0.012947038 0.000905352 -0.014227831 0.010145345 0.05301083 0.034728132
could -0.04943786 -0.025888484 0.0005460767 0.017516404 -0.04321373 -0.0028492361 0.034108818 -0.012181132 0.024526773 0.04027735 -0.033456307 -0.019183353 -0.01036168 -0.032007243 0.015094356 -0.016148416
any -0.016226633 -0.00020273491 -0.026532033 -0.055265717 0.0103950575 -0.025780099 -0.0076819505 -0.019303981 -0.0020795763 0.043764975 -0.05637664 -0.035148256 0.013532072 0.059070975 0.06704258 0.042879246
movies 0.019764218 0.019464416 -0.041381594 -0.031694192 0.08684063 0.031192193 -0.011264877 -0.04761968 -0.014890526 0.01638898 0.027222013 0.02406794 0.057992216 0.012562083 0.06626177 0.0041378536
after -0.016123435 0.024203917 0.0089984685 -0.042514596 0.08689818 0.049140476 0.05236696 0.07143373 0.02363802 -0.025971038 0.010413951 -0.032383308 0.0014894934 0.005085093 0.0017906944 -0.029559819
think 0.061610024 0.024307886 0.06864517 0.04337467 0.02431459 -0.052505203 0.03169476 -0.023453394 0.037869938 -0.01618804 -0.01653564 0.05349538 0.005468296 -0.07738828 0.005821904 -0.06928125
characters -0.0155760655 -0.005302462 -0.009121767 0.08668503 -0.011745947 -0.07072048 -0.07154085 -0.03233863 0.06380701 0.051456705 -0.019528888 0.0013784596 0.0690436 0.009295462 0.041198593 0.018216066
watch 0.008173745 -8.737266e-05 0.034424104 -0.037453264 0.028975694 0.066358134 -0.12153386 0.0124117695 -0.07121272 -0.040439364 0.033402633 -0.04376992 -0.034465432 -0.037203465 -0.010729816 0.006389641
two -0.026131138 -0.015583032 0.05886382 0.0043546157 -0.07051894 -0.10221146 -0.058953244 0.009795966 0.029237581 -0.024968553 -0.026125945 0.061612148 -0.01772798 0.007994383 -0.03161022 -0.012277193
films -0.034151003 0.039508328 -0.0066844095 0.08669781 0.021101927 0.0049805306 0.07631939 0.0059010745 0.021776201 0.054479234 -0.08030711 -0.02164885 0.017119512 0.040632647 -0.049016174 0.034932625
character 0.04651952 -0.07549762 -0.014538711 0.015020899 0.024943579 -0.036759835 -0.094175436 -0.0067372173 -0.025017273 0.0062810355 0.0066512665 -0.07529968 0.05743085 -0.06125802 -0.03750889 0.024627155
seen 0.075681955 0.0037367248 0.04575851 0.00053875404 0.11514468 0.023109837 -0.013717269 0.03700307 -0.04694134 -0.10190274 -0.032791037 0.0800575 -0.016790133 -0.021791155 -0.06443539 -0.056481082
many -0.021694886 -0.013835356 0.06671843 0.023025606 -0.07449301 0.051440246 -0.033162948 -0.097184815 0.03824775 -0.037884884 0.0047940873 0.00015722156 -0.07271462 -0.033963844 -0.038917605 -0.041326266
being 0.014622603 0.0141309025 0.05375801 0.051056363 -0.000987331 0.01916132 -0.038918868 -0.058885816 0.048680805 -0.05935804 -0.06609553 -0.002991738 -0.04257039 0.041493777 -0.023155475 -0.024968388
life 0.0736896 0.05964815 0.045536466 -0.031883124 -0.004619041 -0.0073693823 0.0057470086 -0.014331264 -0.05903263 -0.0077407244 0.018657666 -0.017136488 -0.06609831 -0.026072118 -0.039917134 -0.04572017
plot -0.036326718 -0.06260503 -0.042656887 -0.043505363 0.04577018 7.384592e-05 -0.022253195 0.067903705 0.052290782 0.061648622 -0.1074948 -0.036390737 0.026665319 0.038907606 0.056206834 -0.024084201
never 0.024644438 -0.057797562 0.022237903 0.0067717084 0.059827928 0.017418096 0.028611451 -0.007947573 0.02835263 0.021613369 0.005729431 0.017910376 -0.018475866 -0.034363504 0.03600698 0.029086396
acting -0.01597602 -0.10233583 -0.10381528 -0.03711577 0.035491113 -0.06777429 0.0027491837 0.0897084 0.1187043 -0.030504987 -0.029758476 0.010040728 -0.02907549 0.01792295 0.094005845 0.07962747
little -0.015150126 0.01065304 -0.047085885 0.03812869 0.091122344 0.03070907 0.028234776 -0.02428332 0.044454757 0.021098878 0.031098416 -0.047341157 -0.022298496 0.019241415 0.0071312874 -0.059741475
best 0.1197155 0.13197722 0.017072113 0.013422002 0.017454421 0.112421155 -0.0872172 -0.06616851 -0.03203623 -0.1423436 0.12146661 0.11223007 -0.02268155 -0.04037172 -0.046560176 -0.09050383
love 0.12220122 0.072139196 0.040589914 -0.07807697 0.047685463 0.08268341 -0.12265053 0.0010573518 -0.03196083 0.013112552 0.125489 0.121333666 -0.019226434 0.01469679 -0.06423799 -0.025089782
over -0.045429386 0.004264258 -0.05817116 0.0036027979 0.0023133866 0.018481955 0.008596101 0.059038732 -0.021356788 0.014673323 -0.033845346 -0.021313073 -0.00804704 0.0092302095 0.0672578 0.041035857
where 0.009081142 0.010546629 0.018280601 0.072526075 -0.003759989 0.005225827 0.00058947055 0.026762545 0.013021495 0.02087413 0.004163477 0.033249713 0.022608941 0.0037537012 0.024727194 0.028602926
did -0.018066574 -0.058619916 -0.060367938 0.05063544 -0.04160982 0.014494837 -0.03578338 0.02065412 0.03282624 0.01366747 -0.044701908 0.040668596 -0.022515787 0.053685766 0.0025613613 0.07951767
show 0.015793322 -0.017140195 0.027089398 0.011490387 -0.032422457 -0.046128664 0.06812053 -0.004500509 -0.014338919 -0.0063024666 -0.054349195 -0.009348718 -0.028858088 -0.061103556 -0.029277429 -0.019595876
know -0.0088787805 0.057856627 0.04205274 0.052846365 0.08867163 0.020917898 0.015996331 -0.038783733 -0.01871444 -0.020366551 0.044831786 -0.019954987 -0.06585132 -0.02712466 0.007963011 0.021539243
off -0.009913364 -0.06799 -0.030989075 0.032695618 -0.027787447 -0.029481761 -0.003287774 0.04458996 0.069960326 0.023899965 -0.021270309 -0.0070332377 -0.01506698 0.067656554 0.015951298 0.062163804
ever -0.07752662 -0.06157369 -0.041012052 0.019395957 -0.029588882 -0.0837318 0.06662852 -0.0298025 0.072031416 0.0118663935 0.037131526 0.10755404 0.012583832 -0.008109558 0.059711706 -0.014948903
does -0.017982628 -0.089861356 -0.0016321111 -0.044389565 -0.0038685158 0.038406864 -0.08706306 0.02127082 -0.018549893 0.010557366 -0.021229014 0.017329132 0.056190535 0.0058771293 0.056210756 -0.031204222
better -0.10520828 -0.041192118 -0.04441871 -0.03650227 -0.03211372 0.011313752 -0.042077113 0.05395723 -0.003619666 0.053496882 -0.0507792 -0.09919905 -0.014322097 0.030000973 0.06440706 -0.08492479
your 0.029928196 -0.046843685 -0.03903605 -0.0769537 -0.0027554943 -0.05824917 0.061941322 -0.07219942 0.0022778176 -0.043800797 0.033927575 0.030397383 -0.0046759946 -0.040805724 -0.055674557 0.06842383
end -0.0022393425 -0.051029433 -0.032746993 -0.02238182 0.01645833 0.016553206 -0.11668278 -0.0558433 0.019602137 -0.03496833 -0.012752195 0.03961712 -0.026264811 -0.035577808 -0.042666238 0.04336644
still 0.065707415 0.018139921 0.040979218 -0.07993941 0.07774144 0.027041916 -0.093621895 -0.07651455 -0.11810762 -0.06279662 0.09767854 0.052276608 0.10536331 -0.019433314 0.011084804 -0.019921824
man 0.031100001 0.050363895 -0.04957425 0.01047583 0.023794075 0.04528574 0.025260435 0.006320368 0.045153208 0.055832427 0.024286054 0.04356623 0.0005712334 0.048413202 -0.0025299662 -0.021655181
here -0.03228994 0.012002419 -0.019828478 0.020952456 0.06831783 -0.054518223 -0.028717956 0.059858534 0.017147776 -0.02359113 0.0033326454 -0.009617209 0.027153706 0.014003353 0.05804142 0.04028673
these 0.03792484 -0.027891103 0.03889412 0.020988796 0.073197864 -0.0011260845 -0.01851004 -0.02904742 -0.011386267 0.033865172 0.010654709 -0.07579353 0.0039400742 0.028173424 0.011712257 0.044915926
say -0.03588558 -0.0030393621 -0.058558494 0.04666195 -0.019288158 -0.02877102 0.06536692 -0.051544197 -0.024128722 0.022001773 0.023344178 0.029610928 0.0051638554 0.008321355 0.021513782 -0.007820795
scene -0.005091665 -0.057485297 -0.02012737 0.004232292 0.006563079 0.004307213 0.081594184 -0.0579329 0.038487967 -0.05071481 0.021240648 -0.0209475 -0.043273382 -0.021970589 -0.006811719 0.040537592
while 0.0721714 0.010716998 0.071966395 0.045548912 0.008464634 0.02617287 -0.016758697 -0.06382821 -0.010394898 -0.044188343 -0.0054701697 0.0487949 0.034746576 -0.048714794 -0.00029957868 -0.013607086
why -0.073643446 -0.025598088 -0.037232675 -0.032193538 0.018670682 -0.06515727 -0.07399215 0.044888172 0.07633409 -0.013113774 -0.01416368 -0.11150336 0.08684642 0.11017666 0.100168444 0.004623852
scenes -0.013519839 -0.03332049 -0.07919909 -0.006975061 -0.024745857 0.026206566 0.026365208 -0.053711627 0.03764832 -0.034354758 -0.05045395 0.017201407 0.025694126 -0.0021279305 0.008104356 0.013654457
go 0.040359873 0.012121653 -0.06588967 -0.0880585 -0.021684494 0.034117423 -0.007471057 -0.0044637094 0.018946879 -0.028357806 -0.0161681 -0.020293776 -0.061899748 0.018050194 0.026933623 0.0044079064
such -0.014539414 -0.0873725 0.0036284814 0.030111369 -0.0251755 -0.011972687 -0.034038197 -0.021889236 0.055326413 0.06910603 -0.06105747 -0.011156753 0.05424435 0.015233204 0.006556391 0.022633458
something 0.022557592 -0.045315027 -0.026667183 0.03967118 0.051937025 -0.029469067 -0.023637634 -0.011172288 0.033295974 -0.04732651 -0.0662177 0.057983696 0.060755342 0.022124575 -0.013144047 0.030949028
through -0.032604046 -0.032096367 0.042195585 0.02524064 0.09912796 0.036123257 0.018284729 0.0057443134 0.005308873 -0.016184881 -0.03518621 0.0071056066 0.0064479983 0.058833726 0.06303687 -0.023621395
should 0.013295873 -0.02590453 -0.018669315 0.0070254635 0.006497077 0.05633999 0.084577754 -0.036303364 -0.011331348 0.07370778 -0.03195171 -0.066196546 -0.02762926 -0.025759516 0.034441937 0.030844498
back 0.026384916 0.023654146 -0.020843614 0.018988606 -0.04722404 -0.029937202 0.010881674 -0.015710676 -0.0024398752 0.047385845 0.033176687 -0.04357534 0.024414182 0.04961333 -0.061647978 -0.0066737393
i'm -0.05440057 -0.01221424 0.037452962 0.010339035 -0.041563507 0.020139035 0.02722817 0.019119618 -0.017859692 0.09903874 -0.021274917 -0.01817204 0.07363192 0.0054732733 0.0964163 0.013359737
real 0.04973087 0.0009260226 -0.03747865 0.023585534 -0.018787442 0.00232192 -0.01723769 0.027329953 -0.07330707 -0.04585496 -0.02872838 0.017705858 0.016177122 0.027032334 -0.0153248515 -0.013459777
those 0.0017326614 0.058695503 0.050365295 0.07446588 -0.045309816 0.028628044 0.0056894496 -0.051317886 -0.023959465 0.00056198926 -0.009324603 0.014894865 -0.038646955 0.0018884848 -0.079019114 -0.029734498
watching -0.0487889 -0.005496194 0.03887814 -0.051300503 -0.074181825 -0.02025773 -0.12729746 0.032724902 0.001477925 0.0058399867 -0.05063191 -0.030504243 0.037559044 -0.041788325 -0.03277303 -0.084058344
now 0.044774525 0.04015474 -0.032407347 0.036953367 -0.039605483 -0.03357215 -0.023503792 -0.030488478 -0.012841528 -0.014999898 0.0385509 0.050589785 -0.04143609 -0.014356233 0.04406125 -0.0027595207
though 0.010952243 0.103465654 0.0603893 -0.03831812 -0.003053462 0.056505192 -0.0084884865 -0.033639878 -0.056916207 -0.03385963 0.029648017 -0.007851217 -0.030552438 -0.05116461 -0.024120647 -0.02723932
doesn't -0.11257105 -0.06495825 -0.09386017 -0.07384902 -0.026345484 0.045175985 -0.0044769375 0.05778138 0.08259169 0.04129869 -0.047081504 0.045972534 0.05096208 0.07085183 0.013047278 -0.058837388
years -0.039937776 0.046449106 -0.04396956 -0.028959444 0.066061795 0.010990259 0.05349887 0.076462306 0.040111836 0.058552157 0.025468256 0.043007575 -0.063972756 0.03475504 -0.014821727 0.01970933
old 0.046406407 0.053330902 0.0027050816 0.054150715 0.12812746 -0.028046483 -0.04346545 -0.04897805 -0.023004295 0.022193503 0.00017997518 -0.0076766224 -0.054991778 0.04886685 -0.021645568 0.06055765
thing -0.062046137 -0.021592326 -0.0009601066 0.0116656525 -0.08693171 -0.0015601668 0.024313523 0.022492107 0.017420974 0.008447093 -0.074687086 -0.07470425 0.010609038 0.03860399 0.025360102 0.048878215
actors -0.07599644 -0.018092513 -0.0021306516 -0.02978107 -0.13983332 0.048000287 -0.011216254 -0.010803072 -0.0015718705 0.011277646 0.0043525957 -0.0097532105 -0.0017497679 0.01619924 0.032814253 -0.022031546
work -0.029652527 0.015787004 -0.032835916 -0.047249805 -0.11004521 0.039865144 0.011874401 -0.06290113 -0.032590546 0.03215421 0.023342697 0.027790703 0.04757523 -0.08267276 -0.019588923 -0.025496542
10 0.077030234 0.015953105 -0.025475461 0.0010850222 0.029233977 0.058491405 -0.05619486 -0.16746278 0.025446394 -0.029521111 0.020178093 0.06275042 0.11776659 -0.002558164 -0.007944412 -0.05760139
before 0.044338804 0.02351435 0.0025641108 0.07013567 -0.039795004 -0.016767295 0.06397375 -0.00808787 -1.96981e-06 -0.0072878776 0.00070381304 0.023864297 -0.0012703534 0.03309327 0.048644446 -0.097201414
another -0.03816221 -0.01212275 -0.06341785 -0.09815378 -0.023508681 -0.062439803 0.0039381688 -0.014266499 0.024068704 0.00975645 -0.027396977 -0.022240156 -0.0031775208 0.06169006 -0.011605905 -0.012901438
didn't -0.065065764 -0.0064471834 -0.008485764 -0.021137912 -0.033013772 0.044726945 0.00933266 0.016030146 0.053287357 0.09157765 -0.04327145 -0.014240919 0.009883658 0.052470203 0.060258392 0.022014806
new 0.013420853 -0.050913587 -0.03127383 -0.047364164 -0.005611416 -0.026368262 0.061592724 -0.034440637 0.003290094 -0.011237804 -0.0049904003 -0.012676919 0.06737812 -0.036012106 0.017982291 -0.041838154
funny 0.04477756 0.048874002 0.0083258245 -0.051625602 0.0023469478 0.065760575 0.057986848 -0.0820342 -0.031271476 -0.11228349 0.069394514 0.052447964 0.05305076 -0.047909904 0.010004312 0.034352113
nothing -0.16094896 -0.093420625 -0.14448956 -0.10795154 0.019301541 -0.036592536 -0.09801875 0.110181205 0.12829064 -0.01859961 -0.12845813 -0.024043983 0.02780331 0.15002707 0.06935247 0.06589056
actually -0.03819759 -0.08607853 -0.03701151 -0.07582668 -0.011246388 0.009475318 0.014323267 -0.040896643 -0.013231701 0.025660278 -0.05864024 0.010368209 0.03052456 0.04549203 0.021057498 -0.020905351
makes 0.05048871 0.01033134 0.08148697 0.07839589 -0.052986506 0.009767925 -0.02365342 -0.008124182 -0.020844413 -0.052191544 -0.015051097 0.04955071 -0.046195544 -0.07693362 -0.05609904 -0.017844902
director -0.05257913 -0.06876337 -0.022083905 -0.048825182 -0.05831166 -0.03648922 0.033736136 0.0006812844 0.015865395 0.09238189 -0.052244585 0.0070138075 0.0129151 0.026647449 0.058880184 0.07669267
look -0.06383455 -0.01942624 -0.053197056 0.030849041 -0.040789496 -0.054724403 -0.0024759287 0.05324202 0.0952508 -0.04556503 0.01210005 0.021056794 0.0926487 0.048338342 -0.038691092 0.06367437
find 0.040523123 0.018894862 0.090529166 -0.00030629602 0.0058072004 0.07139062 -0.013278579 -0.03996068 -0.08405815 -0.010235583 0.014233606 0.03164887 -0.020133737 -0.019442238 -0.001296915 -0.07325939
going 0.017853424 0.016456671 0.066747755 0.028181711 0.0127118975 0.040554088 0.022510568 -0.039007716 -0.015738811 -0.051183842 -0.007876859 0.036293183 -0.0030621444 0.008608456 -0.017403524 0.0032017739
few -0.022266 0.0012049084 -0.020765467 0.04029083 -0.07170863 0.005528527 0.055812817 0.01626967 0.029209543 -0.013943931 0.0013489521 -0.007056943 -0.016129067 -0.014791199 -0.033317573 -0.02960824
same -0.020159258 0.01625796 -0.0055433423 0.050540816 -0.0039134542 -0.08182569 0.06990047 -0.020367967 0.0035163371 -0.043965437 0.05127325 0.0017780224 -0.02283718 0.031254143 -0.0071077175 -0.023661196
part -0.0237921 -0.0061756037 0.054004528 0.07742372 -0.104995616 0.08729392 -0.012196528 0.006810465 0.028540105 -0.03319386 -0.012709617 -0.029542318 -0.044822283 0.0034551008 0.04210885 0.007832216
again 0.039784182 -0.030548587 0.04351896 -0.06818427 -0.112331115 0.04209775 -0.01803743 -0.083977215 -0.03827907 0.02848188 -0.0057640183 0.06109145 0.0115717 -0.0045302464 -0.0044794925 -0.024146395
every -0.017677138 0.026935017 -0.0063744984 -0.028462261 0.03228093 0.05952831 -0.04558474 -0.012086098 -0.0041667772 -0.09215665 0.029040787 0.006805395 0.04692085 -0.0027817902 0.0143501535 -0.000858599
lot 0.04090021 0.0465172 -0.011801098 -0.029727615 -0.03052003 0.047918003 -0.012508666 -0.05712661 -0.037273232 -0.05966455 0.02384091 0.06563548 -0.04208938 -0.022927394 -0.06960936 -0.09261428
cast -0.0043129846 0.016373042 0.038800824 -0.072995104 -0.0018544961 -0.022702776 0.021724833 0.007513578 0.076628506 -0.045465685 -0.00064422475 -0.07572517 0.052583642 -0.04482517 -0.01408406 -0.0022410925
us 0.033296864 -0.034595154 -0.053260997 -0.031277772 0.027637605 0.017051399 -0.045316707 -0.046967782 -0.033475917 0.04883881 0.04787472 0.04077659 -0.06518334 -0.047821883 -0.010273329 -0.030582229
quite 0.08060118 -0.038335357 0.09944669 -0.042924386 -0.0047369013 -0.018610302 0.0423296 -0.015183435 -0.0163312 -0.10845771 -0.014819342 0.11415341 -0.024266874 -0.018293452 -0.08942725 -0.02358034
down 0.028182428 0.008727989 0.051737156 0.050191127 -0.034035373 -0.00092213077 -0.0049630133 0.017477293 -0.05471247 0.008896784 0.02050109 -0.009987874 0.03168333 -0.02955919 -0.023927655 0.008275
want -0.10082293 -0.054640178 -0.019124176 0.0004490756 0.03059476 0.0010762672 0.12289906 0.049205747 -0.016990473 0.043952964 0.04146517 -0.047037218 0.021177966 0.025841374 0.08501286 -0.0052081947
world 0.03751004 0.033423256 -0.023230419 -0.033786856 0.04152373 -0.06306248 -0.009962045 0.03639818 -0.08148915 -0.0008724094 0.06927364 0.021080367 -0.00130105 -0.08534391 -0.052576486 -0.0074054254
things 0.05093321 -0.042601075 0.06333737 -0.022116486 -0.014056843 0.077247575 0.045709178 -0.058343798 -0.0044344435 -0.03065373 0.044464957 0.04565138 -0.005226615 -0.007878323 -0.04737828 -0.015373689
pretty -0.09007477 0.016727766 0.0052700015 -0.017117314 -0.06977565 -0.06602028 -0.024556413 0.06454704 0.02700217 0.025117895 0.011227575 -0.030138914 0.10478396 -0.00509676 0.0487663 0.029922158
young 0.034988992 0.09334884 0.06363816 0.003499116 0.025714595 -0.046033755 -0.046700127 -0.07929488 0.0027871737 -0.01499559 -0.01921726 0.0318782 0.008037241 -0.049764417 -0.04926744 -0.019946184
seems 0.007339903 -0.052470915 0.0097725205 0.056066867 0.057523143 0.0059550637 -0.011465586 0.0026937637 0.00076833804 0.060559347 -0.05131361 -0.004468038 0.045866393 0.061984852 0.010661559 0.059190836
around -0.0019974655 0.056072723 -0.00958856 0.029721659 0.019108871 0.030160507 0.021653006 -0.00785755 0.03032178 -0.0059615537 0.050050993 0.057667945 -0.0044493056 -0.03892235 -0.0013384358 0.018865881
got 0.0030121808 0.099366926 0.0995567 -0.036227472 0.044596467 0.12436288 -0.059889108 -0.03419026 -0.031885102 -0.013821496 0.019130802 0.032915615 0.03408993 -0.026500141 -0.0396274 -0.04130306
horror -0.0032483095 -0.08888099 0.008920218 -0.058323458 0.013169789 0.02993298 -0.02576029 -0.03939953 0.056177165 0.03742236 -0.0057133334 -0.003023655 0.081952564 0.009317133 0.01592882 -0.017632721
however 0.02840009 0.01827812 0.013990262 -0.02384771 -0.070067614 -0.018398238 -0.044990215 0.035711978 0.031235676 0.05020233 -0.025041865 -0.039017357 -0.006540615 0.025206408 0.004374414 0.02286115
can't -0.038323704 -0.04878223 -0.0012398113 -0.001966615 0.045754712 0.021876875 -0.034018356 -0.027543694 0.057327498 -0.08590524 -0.009231778 -0.05975116 0.004932148 -0.03337911 0.05628048 -0.0026876258
fact 0.012112855 0.0068679545 -0.013596794 0.007346357 0.030384254 0.02353542 0.0130554605 0.03311404 0.010453889 -0.0014802417 0.042872008 0.058226116 -0.016096676 -0.0041969726 0.061933126 0.013785855
take 0.02842605 0.086922415 0.085821725 0.038841378 0.045387473 0.05568697 -0.04036425 -0.03618283 -0.042942975 -0.035775512 0.050093103 -0.007035974 -0.06279536 -0.03428237 -0.017396437 -0.06647107
big 0.02083728 0.0044478015 0.017756205 -0.0014918917 -0.00496175 0.017353592 -0.06520748 -0.007796759 0.032033294 -0.029924875 0.021351198 0.077805705 0.06305895 -0.008398389 -0.01022794 -0.037882894
enough -0.0703535 -0.06515462 -0.023179198 0.008746626 -0.023267707 -0.0018815979 0.046534915 0.00020683138 0.0072084507 0.076470464 -0.099075474 -0.014395601 0.044441685 0.06301268 0.04895422 0.08338633
long -0.043571025 -0.07206825 -0.0110797025 -0.012591577 0.044750623 0.021325741 0.022656757 0.046738826 0.02369661 0.03537921 0.006603838 -0.0146353785 -0.03580344 0.03828098 0.07724382 0.04656206
thought 0.040221576 0.0040694354 -0.027861519 0.0678504 -0.095073506 -0.009795258 -0.049442988 -0.0034042988 -0.023111867 -0.03949499 0.04544446 -0.04675766 0.018175207 -0.057560187 -0.043477412 -0.0061141048
that's 0.0013884235 -0.042506784 -0.0043500364 -0.05749558 0.015228694 -0.011151269 0.01975975 -0.026874736 -0.016425535 -0.061720263 -0.032466136 0.031124283 -0.030387126 0.03832405 -0.017917085 -0.011142659
both 0.08509472 0.041715123 0.040153224 0.05538726 -0.123441726 -0.059982087 0.011507493 -0.14184774 -0.029497439 -0.09331889 0.038989503 0.03945045 -0.05222014 -0.033189397 -0.048264593 0.005108347
between 0.022217967 0.048321992 -0.014562162 0.092801385 0.06070667 -0.15124048 0.051741883 0.057076845 -0.004965142 -0.061169863 0.0720767 -0.0007690033 -0.005913772 -0.037329033 -0.0016589721 -0.07877799
series 0.010216561 0.017766315 0.0761444 0.07538496 0.002563199 -0.054168146 -0.013962464 -0.018057533 0.051677167 -0.043970264 0.010516329 0.026601432 0.03451363 -0.0060445988 -0.065327525 -0.03650563
give -0.009043087 0.056929052 -0.015298461 0.0015096402 0.027754704 0.05861838 0.11302366 -0.053492174 -0.029647643 -0.040780906 0.025816957 0.0026802544 -0.06253482 0.033546057 0.027649034 -0.045399826
may 0.03951877 -0.0038635565 0.013000344 0.037588377 -0.066074945 0.05585106 -0.046530623 -0.05835014 -0.07683434 -0.08638904 0.078905806 0.02239522 -0.01201773 -0.075284325 -0.047147702 0.036770158
original -0.044934187 -0.03496928 -0.07568696 0.033694167 -0.039164633 -0.009663143 -0.016786896 0.014558694 -0.002416782 0.057237167 -0.05607617 -0.08460274 0.04618711 0.015069614 0.07796888 0.06906442
own 0.0896839 0.05459415 0.017035777 0.007193639 -0.00520148 0.03362574 -0.057048917 -0.07276126 -0.07539752 0.02009687 0.08068083 0.010298535 -0.0334112 0.024211613 -0.007849815 -0.09898632
action 0.053051207 -0.007305138 0.014134931 0.020509914 -0.009408517 -0.029125275 0.08430248 0.04681294 -0.022117553 -0.049872924 -0.029824026 0.036497433 -0.0020972916 0.050627053 -0.041360617 -0.05974356
i've 0.047966428 -0.03904312 -0.05522238 -0.056718264 0.021612478 0.037678752 -0.030871829 -0.09079962 0.033257883 -0.0007513138 -0.03321266 0.036929622 -0.009070705 -0.022868734 -0.023112576 -0.039151825
right 0.061499253 0.042030226 0.062394176 0.018759856 0.014645071 0.022471985 -0.057257254 0.004377377 -0.0067685554 -0.07046263 0.029207345 0.0614908 -0.04980241 -0.014731299 -0.04017345 -0.05149883
without 0.0038042865 0.0168594 0.060752004 0.032210674 -0.13375884 0.01737717 -0.012389347 -0.0515515 -0.016158286 0.0041016135 0.10259878 -0.01659695 -0.007848538 -0.008090008 0.003551762 -0.02139675
always 0.06886304 -0.04141454 -0.027897608 -0.0769384 0.051722057 0.03193206 0.021430738 0.034265425 -0.033284564 0.025204953 0.049064323 0.046467055 -0.07492113 0.05334862 -0.08666588 0.024612037
times 0.036093567 0.10114374 0.09355098 0.01361589 -0.0002065513 -0.015018954 -0.110295385 0.015276322 -0.06602349 0.014018247 0.04851767 -0.00451032 -0.10038656 -0.08476934 -0.03368973 0.02376494
comedy 0.056897637 -0.011631686 -0.018771833 0.03867403 -0.10718581 -0.0005512204 -0.030307699 -0.04462479 0.06305029 -0.010268007 0.01071547 0.007120859 0.04284076 -0.0069059865 -0.082210094 0.025469165
point 0.01476424 -0.046071816 -0.08005641 -0.035849757 0.0103683565 -0.047011275 -0.058486808 -0.0026042636 0.048999783 0.03961628 -0.025506513 -0.018528445 0.046794932 0.07744784 0.019764403 0.09876015
gets -0.040848777 -0.048695628 -0.046463907 -0.007332948 -0.06598625 0.07438891 -0.026008371 -0.01570086 0.002698875 -0.06771493 0.03831906 0.016922876 0.028828083 0.035152726 0.0027191585 0.06662728
must 0.040935956 0.013656445 0.016403023 0.04366156 -0.071500085 -0.121823125 -0.04195379 -0.039597962 0.023373691 0.0056584324 -0.01073028 -0.022872843 -0.043721486 0.0155654065 -0.055229004 0.01766511
come 0.01967977 0.016521314 0.012011173 0.037191566 -0.04859845 -0.013130953 0.10739072 -0.050650865 0.0021496874 0.00983903 0.008182523 -0.0077588586 0.018479656 0.0075379773 -0.036135346 -0.047947057
role 0.06847158 0.016724514 -0.041456554 0.04793126 0.061829485 -0.10418419 -0.019947223 0.014917623 0.06398394 -0.053201616 -0.0026596175 -0.033802584 0.014961841 0.019405618 -0.036907703 -0.047241665
isn't -0.052578725 0.009882299 0.040218342 0.1125968 0.06466144 -0.040206626 0.0317123 0.006934938 0.033641715 -0.018750876 0.051435024 0.0032444065 0.0037212055 -0.06670535 0.032713506 -0.007829751
saw -0.025486175 -0.027757451 0.05374319 -0.05649358 -0.05127248 -0.07554618 -0.037542723 0.023543375 -0.029121617 0.028044464 0.049974278 -0.07488176 -0.06306639 0.006095832 -0.07061824 0.038729724
almost 0.017289259 0.02773958 -0.024582325 -0.07781114 0.021560736 0.0027219502 0.055544026 0.03388038 -0.049029738 -0.0545199 -0.02439163 0.004175873 0.03401476 0.03391797 -0.003973825 -0.043996368
interesting -0.06710666 -0.013503901 -0.015848273 -0.015748227 0.09829286 -0.027789017 0.06260023 0.049530376 0.059263155 0.062071342 0.009453145 -0.014308396 -0.0012393174 -0.009688779 0.06804878 -0.04750694
least -0.037699174 -0.05067169 -0.0684061 -0.07212209 0.013060794 0.035675824 0.04080272 0.0015028152 0.056219213 0.051332135 -0.0047916444 -0.00261389 -0.018800346 -0.025031274 0.03139218 -0.05415238
family 0.025474155 0.04013713 0.08395038 0.0033908007 0.016442187 0.012085925 0.041098874 -0.03914245 -0.021347629 -0.053359035 0.027160706 0.043732535 0.0038036583 -0.048228182 -0.024653364 -0.054288927
done -0.024340171 -0.022346122 0.006348934 0.05902854 -0.0105007235 0.010198689 0.014831867 -0.04511572 -0.014605601 -0.011427277 0.03187442 -0.0013971636 0.049953114 -0.0019258029 0.035935186 -0.003600757
there's -0.026053926 -0.049254883 -0.029427543 0.012082988 -0.051845558 -0.037367422 0.014094516 0.019838614 0.001335163 0.008826408 -0.025407715 -0.0043397015 0.025342723 -0.014389995 0.021373292 0.017093254
whole -0.12565266 -0.0011693682 -0.04662348 0.009921447 -0.020560147 0.023065798 0.0014086497 0.018189752 0.054464884 0.0427586 -0.023561528 -0.084529236 -0.03562144 0.037028562 0.10424373 0.040247068
bit 0.05896808 0.0043468466 0.007370146 -0.028893478 -0.043696035 0.055630654 -0.010365179 -0.11345861 -0.07731938 0.0064425077 0.04564067 0.058106873 -0.078437455 -0.046302892 -0.06626442 0.014792872
music 0.04324958 0.030646855 0.08364798 -0.034993052 0.032196846 0.013209631 -0.0685233 -0.045340545 -0.0677898 0.007705027 0.00027277484 -0.0038666115 0.008286963 -0.037257023 -0.04586225 0.013658462
script -0.1281147 -0.09456811 -0.06917616 0.03969576 0.01789496 0.046617914 -0.09676212 0.04711424 0.017468287 0.0050941855 -0.09331056 -0.083037615 0.04881408 0.09036593 0.01640395 -0.033762828
far -0.06558283 -0.008469729 -0.009049865 -0.0098469425 0.115021415 -0.044657897 -0.0050527453 0.072032385 0.018308071 0.05048999 -0.04988701 0.0026990674 0.02843705 0.022328451 0.02338246 0.038425196
making -0.08851393 -0.07893601 -0.108128086 -0.0026096848 0.027818473 -0.0050481297 0.012586805 0.0022493917 -0.020383984 0.0041360045 -0.049445983 -0.07761185 0.002920356 0.082861885 0.08122609 -0.0002144101
guy 0.031699892 -0.00021270027 0.029811367 0.024689905 -0.10113597 0.055920802 0.043042272 -0.02574594 0.015903775 0.0021867685 -0.033893608 -0.030070486 -0.01599067 -0.02136561 0.047578514 -0.05250634
anything -0.06182034 0.011035268 -0.051190533 0.035082053 -0.002001506 -0.0091647515 -0.023216736 0.0455367 0.014304124 0.020196721 -0.025253845 -0.097393304 -0.034422297 0.038499027 0.07618873 0.05867204
minutes -0.07181478 -0.059076846 0.009137261 0.05180652 0.023927625 -0.07120333 0.061925367 0.070509695 0.07679537 0.06087195 0.0033853631 -0.053311452 0.036689714 0.050331682 0.0761502 0.07955825
feel 0.078934714 0.045013834 -0.015759759 -0.047771715 0.06265136 0.06286379 0.03610846 0.027554331 0.004804777 -0.071662396 0.05244784 -0.02248654 -0.07216593 -0.027948437 0.011098725 -0.053774536
last 0.020768162 0.010962197 -0.008664197 0.08180004 0.062592134 0.015281877 -0.0103721395 0.019133687 -0.034066256 -0.026606545 0.034892403 0.057597347 -0.044305414 -0.0010139393 -0.018105775 -0.05048719
since 0.061314974 0.05584445 0.06411579 -0.04425943 0.021527667 -0.07211523 -0.03397292 -0.015845353 -0.010895985 -0.09795934 -0.023087285 0.034541402 -0.04323343 -0.06493269 -0.08077736 0.0060911034
might -0.07907191 0.016102921 0.0014799314 -0.02717864 -0.111594334 0.020934524 -0.0026770704 0.03279751 0.0807511 0.060040526 -0.012799405 -0.09392119 0.027147349 0.025252244 0.11200789 0.02157185
performance 0.06180185 -0.02990254 0.042806536 -0.062864125 0.11591058 0.039748993 -0.04608616 0.020937413 -0.027013225 -0.020554604 -0.003087735 -0.040065147 0.011392736 0.051676746 0.038093667 0.028460504
he's -0.042746045 0.043946195 -0.012856624 0.013447946 -0.051599726 0.018762019 -0.038537808 -0.027728925 0.025338676 -0.014971936 -0.000647051 -0.031094542 0.022358624 0.062302716 0.078093775 0.0049738437
2 -0.07900741 -0.019443428 -0.059047464 0.05988761 0.013398298 0.009993956 0.03022456 0.010090699 0.016054442 0.044722777 0.03804354 0.0073808744 -0.045828424 0.0022565064 -0.019188527 0.0054379655
probably 0.016310792 0.041441347 0.025238022 0.005414919 -0.10046834 0.007017835 -0.02088773 -0.05612575 -0.003616077 0.031214464 0.059531 -0.012430875 0.012064832 0.042197183 0.019827742 -0.016257795
kind 0.012531047 -0.043936506 0.010538524 0.014868068 0.044405717 -0.019302763 0.082646 0.055443898 0.012394529 -0.024390874 0.05151207 0.0058391523 0.02637766 -0.02965146 0.06964659 -0.049828682
am 0.018346252 -0.016182624 -0.015589492 0.024047576 -0.07472233 -0.019646563 -0.021887053 0.015597492 0.01906159 0.068349406 -0.023537653 -0.04412955 0.03131123 0.005314079 0.029941022 0.0020994446
away -0.03692009 -0.004431562 0.02312011 0.057511065 0.096148245 0.0041811722 -0.033359796 0.058971297 -0.017647637 0.01883555 0.042155426 0.048852246 -0.029082667 0.027553132 0.045138214 0.0487326
yet 0.063575834 -0.015993766 0.06280099 -0.0025429353 0.030083813 -0.01849114 0.03622549 -0.042296868 -0.047727063 0.022312794 0.0050112125 0.056908477 -0.034881502 -0.04199192 -0.053125735 -0.022333065
rather 0.0040256614 -0.008744893 0.06478718 -0.013048754 0.026360162 0.06968702 0.016498964 -0.004621622 -0.06229915 0.007827738 0.024125254 0.017110772 -0.08218003 -0.035005305 -0.0011769971 -0.042330734
tv 0.04870295 -0.0117950495 0.028570589 -0.009214899 -0.031187944 -0.03530344 0.0058247163 0.019986784 -0.035047174 -0.015278086 0.056853976 -0.04390069 0.0038636576 -0.0009408312 0.053653724 -0.0017313577
worst -0.15651196 -0.12634586 -0.105415635 -0.048214994 -0.020397162 -0.1067314 0.17025061 0.11646404 0.08322794 0.16046637 -0.14408234 -0.1799564 0.08659656 0.10165474 0.17781138 0.14071846
girl -0.034986824 -0.028765839 0.054997988 -0.023406819 -0.07418028 -0.004436894 0.081809975 0.01036757 0.0023685254 -0.006132217 -0.041674566 -0.025521971 0.06975845 0.069706164 -0.018107805 0.011182231
day 0.05968716 0.057404667 0.050774947 0.021872194 0.056609027 0.038341608 0.06638266 0.015526289 -0.013861269 -0.03126188 0.009173863 -0.0074142856 0.030828854 -0.004536953 -0.034871206 -0.048468586
sure -0.02671005 -0.036442127 0.04282399 0.051924128 -0.007147962 -0.060241923 -0.05065008 0.036073353 -0.022059957 -0.0018327953 0.023658147 0.056939527 0.021004885 -0.033715878 0.0490438 0.08849667
fun 0.10355285 0.094228275 -0.00097246893 -0.026872309 -0.06289927 0.04161069 0.05510519 -0.017842982 -0.050327864 -0.01745959 0.07641689 0.07735635 0.024161119 -0.1349826 -0.12871152 -0.09914761
hard -0.01362304 -0.033944562 -0.023970934 -0.008655314 -0.11742692 0.025355445 0.052756228 0.009515142 -0.03985254 0.011966183 0.010273839 -0.014692924 -0.051925935 0.018807638 -0.02126216 -0.035993963
woman -0.046934977 0.010366021 -0.030324383 -0.0053364667 0.098418765 0.0037430224 0.07856179 0.026456416 0.025903858 0.02049553 -0.017114485 -0.041400082 0.027316313 0.019114219 0.07840907 -0.026393952
played 0.054401223 0.05012858 -0.026296165 0.048119646 -0.06287901 -0.034759946 0.0025001864 -0.024037376 -0.07984765 0.005017494 0.0922386 -0.021983266 0.007642413 -0.011305366 0.011891966 0.008044833
each 0.023943849 0.07510231 0.059798993 -0.0322511 0.09538512 0.04131988 -0.057822384 -0.030209823 -0.06501194 -0.017723726 0.11208692 0.061903622 -0.038418945 -0.088236056 -0.051775046 -0.08666697
found 0.020322926 0.059504785 -0.0361291 -0.04105247 -0.09563987 0.0013517095 -0.0790575 0.024542876 -0.037654277 0.015393255 0.0004142842 -0.040176626 -0.01584978 -0.013562325 -0.023992514 -0.02494554
anyone -0.051710837 -0.016604781 0.023057321 0.044554 -0.012086683 0.045661435 -0.015188396 -0.007380836 -0.03615119 -0.04075414 -0.061086744 -0.034832712 0.042730324 0.0023497706 0.020783458 0.041246995
having 0.02188054 0.014317937 0.021751186 0.051347088 0.061363786 0.041348588 -0.026458895 -0.046075296 -0.020849325 0.008605543 0.06336358 -0.0153436465 -0.034955826 -0.062135965 -0.06802721 -0.06472659
although 0.021927455 0.04716184 -0.05538683 0.03903044 0.036940165 -0.022999125 0.07837375 0.04794587 -0.05255061 -0.0023785788 0.06849226 0.036385786 0.056389745 0.013818388 0.021192875 -0.05816677
especially 0.020123512 0.072141126 0.01831835 0.11345533 0.06250271 0.017237358 0.065475166 -0.052185908 0.024014786 -0.07300564 0.06392136 0.007865029 -0.06259698 -0.0695908 -0.08881679 -0.0046041426
our -0.0071914084 -0.0055514285 0.055599485 0.0631547 0.008922002 -0.00365669 0.1104295 -0.060796052 0.008705566 -0.024803901 -0.024863783 0.09029539 0.0087497085 -0.06267183 -0.015190755 -0.05060688
believe 0.005439694 0.02937023 0.010348411 0.021806598 -0.046101827 0.015748959 -0.04245926 -0.04619986 -0.025810858 -0.044821993 0.037366316 -0.025962876 -0.07366036 -0.033331648 -0.04472896 -0.03490475
course 0.09676064 -0.02846322 -0.014773363 0.037263133 0.018817311 -0.06398302 -0.03660799 -0.0032172855 -0.009028372 -0.054257132 -0.037322983 0.032810155 -0.0895861 -0.002923442 -0.077810824 0.033031456
comes 0.02637154 0.046690427 0.09460129 0.07496659 -0.0016193126 -0.01578069 -0.00411196 -0.034832925 -0.041402783 0.022920813 -0.0068662157 -0.014785062 0.013049483 -0.044403322 0.0025782308 -0.026074499
looking -0.011466144 0.027727533 0.044593725 0.004454422 -0.08658731 0.10105207 -0.0037201308 0.037513103 -0.025006471 0.04355875 0.018927205 -0.04194879 -0.061211854 0.03649018 0.04332901 0.016599372
screen 0.060359865 0.050021254 0.01086617 0.05961649 -0.018369963 0.060350165 0.040288106 -0.009889575 0.011592768 -0.036662757 0.007626677 0.04025476 -0.0059640096 -0.04976965 -0.045564007 0.02578212
trying 0.007246216 -0.041003987 0.0054715844 0.039334983 0.00091676164 0.0010954523 0.006662745 0.047445 0.03660474 0.011058021 -0.021489335 -0.040321775 -0.007098562 0.030862872 0.09432686 0.054099567
set -0.04196607 -0.02735378 -0.068081 0.035443272 -0.06527734 -0.06708474 0.010407507 0.057955936 0.06746451 0.06937193 -0.014310297 -0.0611997 0.06206448 0.011075812 0.08265018 0.02503377
goes -0.08571191 -0.030229012 -0.040255602 -0.06862087 0.07317975 0.017634314 -0.016559767 0.0014808107 0.012471723 0.021619685 0.041502483 -0.05238245 0.051973417 -0.01964407 0.03216156 -0.00021816773
looks -0.039207764 -0.12625141 -0.0787825 -0.07414161 -0.008235795 -0.0049385675 -0.04193466 -0.015315586 0.030277863 0.01353934 -0.040925093 -0.07271312 0.037894383 0.03342501 0.013354844 -0.017165055
place 0.011157218 -0.040804267 -0.013480349 -0.066714585 -0.14830928 0.043125127 0.016144495 0.011867235 0.02878614 0.069743186 -0.084261924 -0.021177633 0.022815133 -0.0045860875 0.057186097 0.04252257
book -0.015665805 -0.07697185 -0.013160153 -0.026774464 -0.0018966581 -0.04983552 0.039515685 0.003092895 0.042885963 0.033028893 -0.03509382 -0.012846803 -0.032704882 0.031415015 0.025791032 0.08846494
different -0.01570606 -0.02897804 0.022957312 -0.0059212735 -0.15446982 -0.032348894 0.033648103 -0.08973933 -0.082209274 -0.07003352 0.10505001 0.01219947 -0.045340605 -0.078472935 -0.052148633 -0.0068730377
put -0.012834531 -0.0027391515 0.018756866 -0.0065694572 0.035050485 0.047545537 -0.059801787 -0.015406286 0.035482176 0.018635932 -0.003219824 0.08291681 0.0013291086 -0.06075196 0.00059163856 -0.0049257386
ending 0.008157794 -0.059371833 0.056430813 -0.0452639 0.042205974 -0.11307436 -0.084222525 0.059457175 -0.022331232 0.028247397 -0.06335045 0.039578866 -0.031755097 0.015461612 0.027844865 -0.022169184
money -0.056296032 -0.075948924 -0.038888827 -0.07788626 0.058625136 -0.045228813 0.027455125 -0.033367004 0.06172462 -0.01741504 -0.09191381 -0.052627023 0.0018470129 0.04760506 0.033968337 0.037775993
maybe -0.01452889 0.0018123057 -0.0034498668 0.0068337196 0.09287782 -0.065654956 0.002072842 0.052730016 0.064847015 -0.046139147 -0.010306823 -0.010410626 0.010517454 0.04457456 -0.01918049 0.08603884
once 0.06791535 -0.016571876 0.019628331 0.01697676 0.08447388 0.025105221 0.027087705 0.011097782 -0.046668146 0.019607361 -0.009052702 0.0077841473 -0.0896489 0.0010473356 -0.0161855 -0.07112751
sense -0.036540247 -0.012621375 -0.020638997 0.050585717 0.08422424 0.014248739 0.060351875 -0.02289415 0.0415813 -0.036580518 -0.036590785 -0.04549031 -0.0073377416 -0.008726586 0.0028571382 0.010067067
reason -0.04782241 -0.029103523 -0.041090213 -0.019626997 0.0358341 -0.026330998 -0.04619511 0.034557205 0.041830957 0.028045325 -0.049832106 -0.009755557 -0.009769935 0.07625054 0.094756834 0.0264567
true 0.082407996 0.09257752 0.067141324 0.098346435 -0.009679021 -0.05966333 0.08966062 -0.003423839 -0.027114967 -0.06118756 0.01748663 0.116733514 -0.11254935 -0.04588916 -0.115963824 -0.10548181
actor -0.034946993 -0.098305 -0.06286891 0.020369276 0.009700604 -0.0022538053 0.019575708 0.04674705 0.017719455 0.09224995 -0.040669907 0.009379352 0.07991955 0.066313714 0.009641718 0.020612592
everything -0.003263676 -0.006683025 0.080995545 -0.04463275 -0.036905773 0.0028460356 0.010239194 -0.060949538 -0.09387171 -0.014540271 0.09790993 0.05158624 0.024988052 -0.013476736 0.004818203 -0.006231774
wasn't -0.10609376 -0.020645028 -0.028306773 -0.0679854 0.073504835 -0.059093643 -0.007833555 0.064220764 0.020252308 -0.03217158 0.010674825 -0.017356744 0.03318156 -0.00012223356 0.026030956 -0.0038123222
shows 0.029158007 0.09733874 0.014451705 -0.006199665 0.056528434 0.06031159 -0.04657858 0.0169365 -0.071961045 0.007211417 0.045955226 0.069137104 -0.10093114 -0.053144857 -0.07905591 -0.012393337
dvd 0.0275582 0.055052068 0.018976811 0.0078594 0.025786165 0.003995604 -0.0074169785 -0.07224282 -0.052196212 -0.05630271 0.01663637 0.074318826 0.011994368 0.001046248 -0.050283045 0.053458918
three -0.018016787 0.029763717 -0.031759985 -0.07123087 0.051370695 -0.043173466 -0.015070797 0.050504774 0.029299283 0.09395843 -0.010782458 -0.0028486184 0.1218972 0.083689764 0.06950615 0.060187027
worth 0.11151417 0.08200095 0.028618159 0.10774204 0.018841183 0.0476936 -0.00058852223 -0.03494634 0.011357346 -0.10540628 0.08604032 0.018877538 0.045552555 -0.056835923 0.0033404664 -0.037522912
year 0.07086336 -0.053144265 0.025721205 -0.0122562945 -0.05087344 -0.10638763 -0.061184373 -0.0036827147 -0.018963566 -0.021296082 0.07916314 0.07927618 0.0137891155 -0.087052174 -0.055991672 0.032756273
job 0.09048068 0.0129314205 -0.04193199 0.125604 0.011116747 0.06477942 -0.08090562 -0.079212904 0.0057428884 -0.09789194 -0.040168848 0.12345719 0.08298218 -0.087611355 -0.058340613 -0.06855775
main 0.026150985 -0.017341146 -0.028396474 -0.03903156 0.03192593 -0.052232586 0.060555376 -0.00795901 0.040585306 -0.023697156 -0.023390934 -0.05717328 -0.068030424 -0.046067044 0.040287066 0.03130332
someone -0.02037324 -0.025016801 -0.056184065 -0.08647801 0.0695045 -0.10585647 0.08833954 0.06862134 0.059109576 0.018373989 -0.056570906 -0.057954237 0.08497794 0.05336449 0.11175806 0.115856595
together 0.049871873 0.07966474 0.087563284 0.05146466 0.100662574 0.04350039 -0.03026006 -0.028936237 0.041817106 -0.031491537 0.07666656 0.031882532 -0.041819684 -0.06938033 -0.10504739 -0.06768726
watched -0.024861297 -0.08363536 -0.0552664 0.013076929 -0.033667322 -0.052892383 0.0004363802 0.034833223 -0.004485719 0.0372852 -0.12453534 -0.088383675 0.023724081 0.07816855 0.08878931 0.14085965
play 0.08545359 -0.011858205 0.049303163 0.023020197 -0.023748845 0.10295738 0.01788164 0.014752766 -0.033583105 -0.045535624 0.031449467 0.06418397 -0.02927368 -0.044153973 -0.0055005117 -0.0315403
american 0.06917431 0.09148723 -0.016428832 0.039424703 0.057096265 0.08385697 -0.014490583 0.03955382 -0.03278821 -0.018010873 0.05552884 0.031220466 -0.07658782 0.011682471 -0.027477589 0.0032439097
plays -0.0152573725 -0.087071694 -0.020212209 -0.09466899 0.022309378 -0.06075113 -0.030717086 0.029514331 0.044392105 0.07813844 0.026488421 0.0030739747 0.0067143403 0.060027882 0.023811214 0.057242386
1 -0.10260735 -0.07562661 -0.15596364 -0.09139566 0.05082181 -0.07535032 0.014740357 0.100430444 0.037151076 -0.015390665 -0.04300159 -0.07776505 0.045756135 0.11667946 0.096398436 0.11311639
said -0.087746434 -0.037326157 -0.048582982 0.030074753 0.10104106 0.008363453 -0.05701422 0.06404786 0.12188531 -0.002582977 -0.11554865 -0.046543118 0.016703881 0.060426146 0.07789182 0.047530837
effects 0.020936288 -0.047288757 -0.07017325 -0.024268221 0.058138546 0.005458318 -0.034434877 0.04651381 0.031186841 0.08757149 -0.024926608 -0.05003378 -0.005995676 0.067744195 0.014518163 0.02779453
later -0.049702555 -0.012228743 -0.019054873 -0.035161994 -0.045170583 -0.012949707 -0.01543182 0.008518539 -0.017632114 -0.0634778 0.062034216 0.076100856 -0.007460335 -0.02632889 -0.05001232 -0.024419745
takes 0.031343326 -0.017671749 -0.010850189 -0.048467554 0.0788103 0.034744635 -0.02954594 -0.013482089 -0.0008389621 0.018685367 0.014643989 0.014862906 0.05053316 -0.026856195 -0.026944207 -0.034580868
instead -0.08430833 -0.041483283 0.0077202027 0.036562752 -0.04875115 -0.0027020723 0.0126679465 0.047558106 -0.011179363 0.078861885 -0.010039646 -0.07275952 0.027821109 0.059340738 0.041315757 0.08521026
seem -0.041822523 -0.06891656 -0.053045098 0.019954795 -0.018614322 0.009743885 -0.070452265 -0.0051019904 0.05194425 -0.0004014509 -0.050466284 -0.06117687 0.007751635 0.04609496 -0.050725404 0.058003172
beautiful 0.014367137 0.08495744 -0.07807891 -0.124633364 -0.02334706 0.056111287 -0.086512126 -0.0334972 -0.045644883 -0.06682599 0.09168803 -0.025776446 -0.055778343 -0.051500324 0.007817815 0.06824588
john 0.029030075 -0.05185687 -0.026518397 -0.03853869 -0.046373576 -0.12149404 -0.03723538 -0.0017329335 0.05125446 0.030785248 -0.033225905 -0.01663111 0.019561838 -0.021179022 -0.0038670686 -0.025279608
himself -0.054350358 0.010485951 -0.011074688 0.08354984 0.0045543043 -0.014397294 0.028323842 0.06769653 0.040546767 0.06927643 -0.03791664 0.0023526018 0.00067613757 -0.013322404 0.020788206 -0.020452468
version 0.06927768 -0.020818118 -0.020833656 0.0038489294 -0.029123558 0.03469196 0.04369073 0.039148834 0.049550258 0.024370994 0.026532928 0.029357802 -0.03784164 0.0049050944 0.02151493 -0.063553095
audience -0.025375476 -0.048386194 0.012033294 -0.06090572 0.0031620013 -0.030419456 0.05453354 -0.023343343 0.011188379 -0.007591597 -0.02290413 -0.043844204 0.005729255 0.013716021 0.054219957 0.038703524
high -0.0067817103 -0.008429623 -0.00016573719 0.046139378 -0.024786988 0.028416846 0.058678206 -0.07108447 -0.018541409 0.011822436 0.04326544 0.012422466 0.022703717 -0.092135146 -0.019682419 -0.020554144
house 0.025464788 -0.038129233 0.015249353 0.017003484 0.078076415 -0.006988434 0.022325661 0.0058402102 0.012269613 0.016390935 0.019734211 0.005726627 -0.009097173 0.022624163 -0.03270131 0.002928885
night 0.014190135 0.019910738 0.044598646 0.0011712436 -0.10010177 0.021086466 -0.029955357 -0.0048779068 -0.041990314 -0.018416828 0.012531288 -0.0005527764 -0.05200657 -0.054831713 0.032969862 -0.0063877124
during 0.025937391 -0.049527645 0.038231213 -0.048048954 0.0696974 0.06330046 0.013233198 0.008390252 0.045866612 0.04472152 0.03665234 -0.044311438 -0.0024037925 0.01930882 -0.045665666 0.004349846
everyone 0.029567601 0.0072299284 0.08478984 -0.018391253 0.028285105 -0.02849938 -0.013012112 -0.023055375 0.015109809 -0.039640985 0.06535113 0.08652201 -0.0010697372 -0.10021459 -0.03251088 -0.1027515
left -0.026607813 -0.048746694 -0.090337925 -0.0989628 0.100750156 0.012862742 0.06842707 -0.021970091 0.007185505 0.01916344 -0.060398206 -0.057531398 -0.021070767 0.0056889625 0.0758021 -0.004530838
special 0.062116213 0.02990267 0.070727356 0.005330957 0.05207405 0.059562217 -0.02783697 -0.041866995 -0.08856492 -0.01883113 0.01835666 0.06190962 -0.012649322 -0.026299117 -0.017948048 0.009142179
seeing 0.049032684 0.050254952 -0.064253874 0.06882066 0.018749604 0.0070750043 0.015388202 -0.024447024 -0.04340598 -0.050379228 -0.034655467 -0.00035620073 -0.010924772 -0.017544895 -0.016759224 -0.009217749
half -0.07643921 -0.07105102 -0.09775601 -0.06549659 -0.062378835 -0.04024867 0.05337389 0.038326357 -0.012650907 0.045551684 -0.05151643 -0.05938403 0.054403637 0.08031774 0.08028099 0.07667289
excellent 0.16292556 0.11995956 -0.05326128 -0.001845623 0.16353989 0.1539953 -0.08258608 0.12009631 -0.16586533 -0.023541667 0.15296876 0.14749919 -0.061769363 -0.09612942 -0.11678512 -0.11553361
wife 0.07209209 0.029605454 0.012924479 0.023643184 0.006467588 0.05749955 0.003929442 -0.064329796 -0.06416053 0.0047352156 -0.028206823 0.064288445 0.035902727 -0.00019628135 0.016216641 0.019086296
star -0.02784923 0.003007108 0.047819808 -0.0053489273 -0.05665045 -0.009737139 0.07336732 0.019165613 -0.07040463 0.018659359 0.008960455 0.009665569 0.015904123 0.03487246 0.036686096 -0.0056842673
shot -0.025506554 -0.004478915 0.06589155 0.013100801 -0.07566015 0.062138148 0.04914152 -0.012769698 0.04932947 -0.03639906 0.0060245316 -0.014444638 -0.006234536 -0.033035163 -0.010889221 -0.005297622
war 0.027184915 0.072152264 0.027210623 0.015884623 0.12817666 -0.019147027 -0.0986455 -0.019169742 0.020033443 -0.0911453 0.11220444 0.1261794 -0.042232465 -0.049859416 -0.08274143 -0.020940222
idea -0.09506851 -0.106879346 -0.034509316 -0.01998705 -0.047773123 0.023875859 -0.018248525 -0.00437751 0.07582585 0.111362636 -0.08313171 -0.012812843 -0.0052263006 0.11156324 0.09979484 -0.0069133914
nice 0.079993404 0.023281077 0.004968648 0.030419 -0.024391258 -0.00943324 -0.0020977105 0.01738412 -0.017972516 0.0009921254 -0.007333377 0.05809972 -0.015851974 -0.022723617 -0.003663135 -0.03889854
black -0.019802585 -0.023641542 0.040005807 -0.0758164 -0.020097516 -0.11327837 0.014682506 0.026262878 -0.007389803 0.070790514 -0.061005715 -0.055974346 0.046454657 0.045278624 0.0051669013 0.15483056
less 0.022422027 -0.03434079 0.038112506 -0.03109176 0.054085344 -0.05023716 0.0001624568 -0.00010890256 0.0076164138 -0.032166325 0.015087681 -0.01681128 -0.07352354 0.007963887 0.057835747 -0.0072205854
mind -0.005083861 0.047849897 -0.014134157 0.006850935 -0.0286716 -0.031645887 0.042701807 -0.021013392 -0.06173217 0.00013924253 0.03390358 -0.022485852 0.0036663117 -0.054241028 0.021808527 -0.029087722
simply -0.051994078 -0.029191343 -0.11657264 -0.015887044 -0.0012443948 -0.09107928 0.015555011 0.04206455 0.008099841 0.0071981964 -0.057852197 0.0160769 0.0635679 0.061825626 0.01788411 0.06777582
read 0.0043187384 -0.03922087 -0.014942622 -0.01722048 -0.008813863 0.019636732 0.057924975 0.028500672 0.00852591 -0.034777265 0.00861854 0.014035762 0.03129407 -0.020219376 0.0122083295 -0.046670664
second 0.0054284455 -0.022562897 -0.047823336 -0.111709476 -0.051317357 -0.029940387 -0.03823282 0.048196476 0.04203864 0.02158288 0.017853146 -0.025499102 -0.01106344 -0.01152612 0.053214777 0.047590874
else -0.0930103 -0.08989578 -0.050385006 0.007935282 -0.041834615 -0.0119940275 0.039284293 -0.00028395592 -0.0069285124 0.08734126 -0.06250508 0.03036784 -0.07705097 0.022315465 0.060604777 -0.009057163
you're -0.054276224 0.023279598 -0.053519472 -0.040558048 -0.024739023 0.022608351 0.019309923 0.009674026 -0.017523 0.073051535 -0.07957093 -0.013397118 0.008508604 0.0037934151 -0.030634798 0.048264902
father 0.020294059 0.038672425 0.04175319 -0.008694316 0.08862328 0.058374416 -0.022891287 -0.052924275 -0.06529627 -0.005254022 -0.019981079 -0.005450659 0.024854112 -0.0071906727 0.028184244 0.018050388
fan 0.011595103 0.0023994902 0.0304234 -0.02533317 0.009892907 -0.08920561 -0.00959143 -0.05058869 0.032315996 -0.08875171 -0.014996133 -0.003966063 -0.031023547 0.05376064 -0.045612004 -0.04689141
poor -0.10909433 -0.11675392 -0.1350097 -0.09725088 0.047550708 -0.051232032 -0.10111752 0.12955691 0.11298014 0.09332437 -0.17785725 -0.060179915 0.14006358 0.14437887 0.114045255 0.14015448
help 0.01248227 -0.059357125 -0.07048172 -0.06259981 7.1813054e-05 -0.09412676 0.0013487566 -0.06649044 0.018828457 0.045446172 -0.036445152 -0.026334576 0.07047132 -0.047469817 -0.0052406075 0.08061601
completely -0.06909062 -0.0029132224 -0.017220259 -0.074336134 -0.07675799 -0.011687318 -0.011744259 0.00034847733 0.0016394806 0.0058134054 -0.07181703 -0.0059024603 0.064325705 0.054030795 -0.0024884653 -0.002836482
death 0.006734857 -0.041526273 0.015850272 -0.061356343 -0.027653722 -0.030661194 -0.026495153 -0.053839605 -0.026538659 0.006022984 0.009784878 -0.003221345 0.028912123 0.037482243 -0.010368011 -0.025282932
3 -0.100097604 -0.10025991 -0.044473775 -0.07094861 -0.014114698 0.00035577308 -0.006422818 0.11538942 0.05107568 0.047398966 -0.029015275 -0.057559457 0.009097227 0.098633796 0.06532633 0.041012738
used 0.058531687 -0.038249224 0.029241063 -0.03726017 -0.06260081 -0.007904873 0.048139367 0.020542435 0.0028175057 0.02518827 -0.00041822987 -0.05096707 0.052347824 -0.017512485 -0.02080491 0.030180022
home -0.054452382 -0.052709594 0.0005181905 -0.035884615 -0.0064243744 -0.06717653 0.13533986 -0.010007486 0.0074996324 -0.005598864 -0.054823134 0.009349139 -0.04117129 0.04827149 -0.009714691 0.053985458
either -0.03690005 -0.023966014 -0.06401403 -0.003187383 0.018387996 -0.00031470892 -0.11129671 0.035199225 0.0036898167 0.023731446 -0.034670345 -0.02385898 -0.02583761 0.07744209 0.037762575 0.03160333
short 0.0011915101 0.05336508 0.106204286 0.08164611 0.06831739 0.017639082 0.031077245 0.0002955178 0.004093708 -0.06939834 0.07101601 0.003071374 -0.04872342 -0.0059917876 -0.047292557 -0.04036615
line -0.042334393 -0.084237516 0.025362154 -0.106640235 0.021609716 -0.024972694 -0.0050959024 0.015087129 -0.021078808 0.0031752184 -0.031059628 -0.020163711 0.04034904 0.0059968224 0.0053656856 0.011935244
given 0.0608167 -0.01744955 -0.015408487 0.05184451 0.055895895 0.02650954 0.019200686 0.040530615 -0.0057715694 -0.0090661775 0.038025364 0.012512128 0.03364138 -0.019960377 0.036650315 -0.0011439035
men -0.02758124 -0.023128789 0.042187095 -0.03774696 -0.0023550703 -0.01857909 0.0022826227 0.04555281 -0.042712912 0.049939808 -0.016192328 -0.03514885 -0.013360763 0.03057034 -0.03426882 -0.01846385
top 0.030634973 0.0612452 0.04631792 0.031540148 -0.0016898667 -0.03690398 -0.04771168 -0.034311622 -0.025701767 -0.013565538 0.010227548 0.088722505 -0.016559608 0.0047787223 -0.022571096 -0.01911378
dead 0.028756797 -0.018539717 -0.024347436 0.013548448 -0.05889075 -0.0034456453 -0.015260601 -0.025132217 -0.014069414 -0.016090553 -0.025078656 0.02122349 -0.031502597 -0.030603608 0.022197558 -0.0062477267
budget -0.001901845 0.028766934 -0.06372057 0.052552275 -0.011554303 -0.024952611 0.0007430622 0.025576653 0.09780329 -0.0717802 -0.030541027 -0.048812408 -0.06866776 -0.023188688 0.06832386 0.03885844
try 0.013455598 0.0063640685 -0.024594713 0.011364172 -0.097443506 0.046238247 -0.0005305119 -0.038963173 0.052731156 0.006258505 0.066280395 0.007763204 -0.025877949 -0.07329771 0.04530714 -0.027248807
performances 0.1093101 0.05918745 0.063219756 0.122135945 -0.15549746 -0.21621051 0.07040192 -0.16134462 0.0012524793 -0.0908804 0.0033361795 0.11618928 0.0900279 -0.118171245 -0.02553696 -0.07239938
wrong -0.06638478 -0.0447185 0.017168975 0.040463377 0.025964636 -0.038625266 -0.06491702 0.04618736 -0.028100442 0.0077901045 0.009601291 0.030889798 0.047830608 0.0053783767 0.09461408 -0.013299682
classic 0.016740732 0.061683323 0.05866909 -0.009258182 0.0063756863 -0.04829462 0.1146612 -0.025662517 -0.041444033 0.024023796 0.012462417 0.03379966 0.028041916 -0.004582645 -0.059914023 0.009372356
boring -0.1981583 -0.16508932 -0.14791518 -0.035013605 -0.010789785 -0.13088162 -0.067211926 0.17268878 0.09586902 0.033204038 -0.1664872 -0.17712854 0.14661345 0.15265472 0.16831528 0.097576804
enjoy 0.09848678 0.0062309364 0.036965024 -0.053950418 0.11726701 0.058146615 -0.06484151 0.0023122847 -0.055401087 0.02478198 0.080193475 -0.032632977 -0.014664675 -0.05089024 -0.08503004 -0.009503465
need 0.039447263 0.03536323 -0.011333116 0.063278444 -0.0044567487 0.026249705 0.011437521 -0.040416986 0.038708497 0.03473911 -0.011119199 -0.046909142 -0.018338867 -0.03244438 -0.022093648 -0.045229428
rest -0.05524772 0.0004839044 -0.030271823 -0.028179506 -0.05889383 -0.04004386 0.036120515 -0.05752282 0.017178465 0.0072449357 -0.06778298 -0.011266398 -0.05411705 -0.033159565 0.018401733 -0.008194081
use -0.010310329 -0.021424435 -0.051311933 0.001779087 -0.098165125 0.008322678 0.042044394 0.022346882 0.006701905 0.040862992 -0.070714526 0.008194574 0.0029547792 -0.021376405 -0.056585718 -0.014323011
kids -0.037559103 0.021470191 0.015533459 -0.0435124 0.036196038 0.034593195 0.006670527 -0.07783839 0.00086961297 -0.057280757 0.04668208 0.060186394 -0.02833542 -0.023956034 -0.05353008 -0.023456704
hollywood 0.024860566 0.0281792 -0.009052271 -0.001280016 0.034659367 0.032000877 -0.0636938 0.06638258 -0.036815055 0.07348963 0.0069224597 -0.04730388 -0.035806924 -0.02405191 0.045669407 0.05622666
low -0.049871903 -0.006021775 -0.06185444 0.07718422 -0.071008615 0.008289927 0.03923163 -0.021055851 0.021037769 -0.031366024 -0.044236574 -0.0013548092 -0.008729159 0.024851313 0.07551281 0.07351483
production -0.0017125177 -0.05985097 -0.024659047 -0.05919019 0.052267175 -0.06283815 0.056470867 -0.007929012 -0.010610758 0.013307057 -0.0634447 -0.06739925 -0.012356117 0.036028065 0.0405327 0.053750284
until 0.050778557 -0.0039846045 0.045653448 -0.0685063 -0.036632653 0.005512939 -0.05190426 -0.0068556964 -0.050307635 0.024567533 0.010934651 0.023122342 -0.048026327 -0.034696918 -0.058401775 0.0081058275
along -0.014515539 -0.004155475 -0.0425594 -0.01481654 -0.056072194 0.03791259 -0.047019035 -0.008232428 0.09332673 -0.027922124 -0.045878097 -0.028177693 0.057295274 -0.003307453 0.0026845017 -0.013978096
full -0.0025960046 0.025422981 0.046194922 -0.022337614 0.046591952 0.066347 -0.014684027 0.043470014 -0.057207428 0.029719431 0.06712526 0.055868898 0.02979626 -0.03399104 -0.07212978 0.04850277
friends 0.040424716 -0.021144394 0.07937055 0.008193578 0.006405881 0.036317974 0.047983143 0.07494953 -0.057996433 0.015817426 -0.031923648 -0.027865425 -0.047680933 0.015888976 0.02348994 0.06301696
camera -0.02207629 -0.02570708 0.060153246 0.0641259 0.024202889 0.0025328698 -0.009341072 0.041876648 0.04418345 0.0013499105 0.03620683 -0.015713884 0.010101397 -0.027612127 -0.006797862 0.0032135122
truly 0.016860344 -0.018481318 0.011446888 -0.08566592 -0.04116293 -0.0641656 -0.056395564 0.0073218835 -0.05855634 -0.09973875 0.036475807 0.08692922 -0.034281515 -0.07732118 -0.10596857 -0.025444584
women 0.034601152 0.044160377 -0.032181647 0.016860647 0.08437692 0.0045242654 0.012493384 0.04497189 0.0039399047 -0.018730089 -0.0039636954 0.006341206 0.039302032 -0.013915673 0.057924896 -0.019596925
awful -0.18590365 -0.1607412 -0.18305147 -0.07549118 0.102614 -0.10921818 0.0030551308 0.08830585 0.10632495 0.1435578 -0.14032836 -0.10002212 0.055712726 0.13055354 0.1465788 0.150018
video -0.030546712 0.020547759 -0.034656383 0.026971154 -0.026503792 0.072423734 0.013297969 -0.06991662 -0.0062925736 0.067614354 -0.0019825993 0.022055276 -0.022551257 -0.031366337 -0.02990433 -0.06673426
next 0.009217174 -0.0023485073 0.033824734 0.039570544 -0.0097478395 0.023510978 0.036790878 -0.005868783 -0.048564266 -0.047737993 -0.002299145 0.024791142 -0.055253103 0.046572585 -0.04729985 0.029826762
tell 0.048947085 0.018497413 0.043974254 0.044786748 0.011741544 -0.043837268 0.008099468 -0.04431684 -0.02335318 -0.04351372 0.0017470027 -0.014391228 -0.012768503 0.019181864 0.022091182 0.027523814
remember -0.00067836343 0.048605464 0.010635512 0.02553204 0.006596407 0.0990552 0.0034138854 0.027849121 -0.05953721 -0.022729745 0.03687962 0.014583213 0.008834332 -0.05681512 -0.09087899 -0.05783902
couple -0.014785329 0.006436775 -0.0061325957 0.019304002 -0.04672444 -0.021617193 0.006760637 -0.027057877 0.0812726 0.028015528 -0.017032633 -0.060939338 -0.024941623 -0.053473588 0.07273448 0.0024305154
stupid -0.08275422 -0.0326906 -0.027176635 -0.006485808 -0.13030529 -0.013719719 -0.0024042584 0.056490265 0.01478597 0.04480382 -0.05597391 -0.036751192 0.058830895 0.024649292 0.102596775 0.027645975
start 0.027122987 0.00047590755 0.034346778 -0.036077693 0.0014206276 0.0069654956 -0.007988275 0.095497504 0.07428921 0.0018149347 -0.016549008 -0.015826782 0.07678935 0.06529987 0.08536068 0.0553187
stars 0.0034628047 -0.021476148 -0.0014782869 -0.02449477 0.03737283 0.036302403 -0.07622311 -0.0017402344 -0.008202253 -0.06777042 -0.016722895 -0.05019708 0.04515071 -0.020871742 -0.010636 0.020814283
perhaps -0.032038443 0.009803294 0.06903828 -0.0414184 -0.066600434 0.020288022 0.01619282 -0.016150858 -0.059509065 0.06792655 -0.00994702 -0.019349601 0.032452688 0.008451532 0.0072033517 0.010691496
sex 0.014382412 0.037266053 0.07111497 -0.045561686 -0.11818432 -0.01705813 0.04988345 -0.036474895 0.0053730705 -0.016086696 -0.060839426 -0.034061246 -0.006690989 -0.032819327 0.006179363 0.052932706
mean -0.082113154 0.016346531 0.0071635754 -0.002307688 -0.023911329 -0.039477646 -0.0650618 0.05771284 0.0057367845 0.04470184 -0.023203472 0.009242476 0.054789692 0.020001486 0.029819809 -0.00964145
came -0.020231282 -0.020785218 -0.028939582 -0.0030711426 0.08190132 0.023476979 0.049692847 0.049591973 -0.013937664 0.026973704 -0.010166757 0.03246501 0.013560066 0.049035374 0.022421943 -0.004809442
recommend 0.111108 0.08483036 -0.052345842 -0.077492744 0.10695085 0.10086562 -0.1431712 0.03469794 -0.030701702 -0.011926867 0.13140552 -0.012004375 -0.048486684 -0.07442907 -0.019011002 -0.1006583
let -0.025003549 -0.0006808238 -0.022458704 -0.030410137 -0.0071272193 0.012022762 0.008384368 0.03900432 0.04410218 0.034054305 -0.014130767 0.027173547 -0.07598407 -0.032048233 -0.05237928 -0.025676033
moments 0.012968393 0.0015251564 0.04886898 -0.07614118 -0.098031625 -0.029631965 0.013824984 0.06353392 -0.00803269 0.015275942 0.024230797 0.0076232566 -0.044227537 -0.0339986 -0.029012874 0.01374954
wonderful 0.09266096 0.11168225 0.12345965 -0.1427705 0.13981001 0.06315572 -0.16866578 -0.009485038 -0.13543022 -0.10180957 0.11845087 0.06283389 -0.1602238 -0.07254199 -0.190813 -0.04745939
episode 0.11066321 0.10774762 0.061548673 0.03555748 0.06432521 -0.06997478 0.043046568 -0.0018666427 -0.03682287 -0.11825799 0.055929214 0.095138706 0.015662083 -0.0033869997 -0.06378532 -0.10136734
understand 0.04234345 0.032520384 0.07392918 -0.009660788 -0.040216006 0.015966026 -0.004573131 -0.08198113 -0.07140849 0.0024223358 -0.023188543 -0.0058163046 0.043455135 -0.035915103 -0.012772659 -0.030573836
small -0.008950679 0.018079216 -0.07229495 0.027977306 0.0067746066 -0.041234523 0.018933365 -0.05045945 0.049718857 -0.0063069663 -0.046312343 3.2844655e-06 0.03417452 -0.07447579 -0.023770098 -0.06444649
face -0.029562315 -0.02870094 -0.021120353 0.054245695 0.111298375 -0.029837646 0.04498442 0.038384743 0.018550841 0.0075151226 -0.005208576 0.008439228 -0.05266822 -0.005527158 -0.020615593 0.055349175
terrible -0.1029798 -0.12339603 -0.11267965 -0.08229381 -0.097903445 -0.05040211 0.020120118 0.12257551 0.08441943 0.06297894 -0.1339103 -0.08593077 0.102497116 0.11003956 0.12978977 0.075477205
playing -0.06857539 -0.014544971 -0.015790725 0.0008230001 0.005779878 -0.08503699 0.08675669 0.0004129758 0.063508265 0.057418767 -0.033406213 -0.019198267 0.048097614 0.05368476 0.039017588 0.030943234
school -0.005378724 -0.029225586 -0.04065123 0.015221993 -0.047075745 -0.04544114 -0.01902608 -0.014911418 0.031724863 0.026023544 -0.05523509 -0.01245315 -0.0015594402 0.0038935947 0.024578603 0.00089197146
getting -0.0024928746 0.0229085 -0.015382955 -0.042636495 -0.013953865 0.035959058 -0.0008269602 -0.0046218885 0.015393236 0.022781605 -0.03455756 0.039937843 -0.03880337 -0.043961372 0.015583993 -0.0054928567
written -0.05004078 -0.035326406 -0.03559091 0.02783652 -0.019038755 0.052356236 -0.091080844 -0.06631423 -0.047525518 -0.020719925 -3.0451087e-05 0.012092847 -0.002531778 0.013683531 0.012141856 0.033408705
doing -0.037602354 0.0034873632 -0.038092483 -0.05075886 -0.020853983 0.017974129 -0.0860593 0.06292757 -0.00808687 0.045411136 -0.04743886 -0.0772813 0.07161263 0.004221999 0.051088046 0.009613655
often -0.033526544 0.015360621 -0.019826055 0.030390073 0.061797053 -0.014516707 0.12425582 -0.07019088 -0.015653614 -0.016453352 -0.06993119 -0.018919546 0.013510638 0.07519683 -0.009201167 -0.069603845
keep 0.021275971 0.017862286 0.036523424 0.0007645405 -0.098433405 -0.08487831 -0.016560253 -0.02234454 0.0740121 -0.08556478 0.01778564 0.072523534 -0.03121793 -0.07502376 0.03139332 -0.019826844
early 0.04065445 0.038077977 -0.06635074 -0.028485145 0.08056662 -0.09869108 0.0024875663 -0.005195442 -0.015870083 -0.056007612 -0.026339125 -0.0023170437 0.024441153 0.056637287 -0.035018373 -0.02241788
name -0.09430235 0.010635096 -0.059974026 -0.012398632 0.04685424 0.019536944 0.047939375 0.053285018 0.04151714 0.0060547674 -0.05863276 -0.033094518 0.02433958 0.0034095733 0.041435402 0.010684511
perfect 0.15790208 0.15841284 0.14271492 -0.015577951 0.093766324 0.1452351 -0.14896011 0.025118984 -0.089800544 -0.043348398 0.16024476 0.12477453 -0.14931044 -0.10226906 -0.10743637 -0.046327915
style 0.027992798 0.023491053 0.07085437 -0.0751791 -0.077951215 -0.03406289 0.06001862 -0.006934369 -0.022772174 0.0013902291 -0.036171846 0.045556404 -0.02046208 0.07789028 -0.044310775 0.0008870892
human 0.00080492516 0.093615174 0.059689138 -0.060577415 -0.065731116 0.029258914 0.061743375 -0.07330774 -0.103500634 -0.07076053 0.024454601 0.08515765 0.032963146 0.017462598 -0.017151684 -0.047541242
definitely 0.112289146 -0.005609438 0.1362068 -0.0006801375 -0.038468882 -0.014449099 -0.16424838 -0.16528969 -0.08112513 -0.051487293 0.07828165 0.04815759 -0.066919506 -0.030369243 -0.06187374 -0.020648787
gives 0.04248251 0.040131144 0.05297767 0.008117324 0.07970476 0.07148781 -0.019768097 -0.0929168 -0.021389106 -0.0069329906 0.09922451 0.006652391 -0.087174915 -0.0636516 -0.08380786 0.021820467
others -0.017843885 -0.037833516 0.057478163 0.040649887 -0.15557292 0.015612747 0.056858286 -0.08794107 -0.087349236 0.018729644 0.06984169 0.027250875 6.38071e-05 -0.012527954 -0.034768302 -0.058333274
itself -0.07894212 -0.12472696 -0.06978965 -0.10326726 0.12016997 -0.05936239 0.068695545 0.080659345 0.08994378 0.007524755 -0.101860896 -0.034456592 0.07694225 0.012604727 0.029543154 0.04515198
lines -0.024320502 -0.015317416 -0.021364728 -0.016004985 0.0058505284 -0.011384656 -0.03697103 0.031860746 -0.032768026 -0.014121062 -0.016067725 -0.08819593 0.0029546698 0.043617405 -0.0026042745 0.024831468
live 0.009537809 0.021998165 -0.018545905 0.0014485182 -0.01772007 -0.025262818 0.03759523 -0.075602666 -0.05412649 0.016744891 0.027951648 0.043291625 0.03451083 -0.025347207 -0.025631208 -0.0017723653
become 0.07130933 -0.0149450665 0.07446237 0.03234719 0.104042016 0.047024835 0.0945046 -0.034225203 -0.084175594 -0.06944089 0.014435512 0.0019274225 -0.0445135 -0.045897927 0.005887928 -0.021623654
dialogue -0.020428495 -0.03653368 -0.088076994 0.0018630634 0.04538071 -0.03817758 -0.010197129 0.010399972 0.08173392 0.09679572 -0.0256032 -0.024356544 0.034937996 0.04073028 0.051552992 0.027570868
person 0.021313244 0.0029987819 -0.047869723 0.021887902 -0.05492239 -0.0058405036 0.04369742 -0.041958142 -0.024049073 0.02142645 0.008670467 -0.003937092 -0.02201326 0.05117743 -0.009409939 0.016784543
lost -0.043023966 -0.017183455 -0.025709407 0.041118674 -0.13055877 0.05877864 0.028079044 0.07859499 -0.035332777 0.011978129 -0.05538281 -0.04049869 0.03265165 -0.0052837813 0.057292707 0.06384204
finally 0.031006247 0.024232099 -0.0518512 0.009656891 -0.052813277 -0.013344911 0.014115988 0.062327176 0.033423167 0.04920428 0.030671058 0.036368698 0.057349186 0.06248871 0.052913062 0.009397735
piece 0.013281662 -0.025477232 -0.01414941 -0.0032822536 0.054135147 0.021022938 0.07449468 -0.008264258 -0.023972183 -0.020504054 -0.0085709775 -0.090619676 0.07478 0.06747351 0.002221685 0.05691861
head -0.059883058 -0.054090433 -0.07036464 -0.0454873 -0.025091734 -0.027359692 -0.034790277 0.024996119 0.0062352293 0.09402668 -0.0924906 0.014991834 0.02378598 -0.0060647065 0.07404952 -0.008794989
case 0.015403611 0.0032745637 -0.013497479 -0.004510764 -0.07759662 -0.019074732 0.032513306 -0.002171592 -0.051913727 -0.04576756 -0.041557536 0.014865965 -0.005823764 0.010525055 0.013187911 0.091854095
felt 0.0144439405 -0.010979698 0.0015141065 -0.05615308 0.013223814 0.0066081216 0.037610993 -0.05727719 -0.010028944 0.024884695 -0.05961188 0.04744291 0.024988515 0.033958156 -0.020166505 0.016900085
yes -0.024768949 0.036727812 -0.017411254 0.08384761 -0.04414882 0.002964261 0.004928386 0.015413389 -0.04962645 -0.034100924 0.007249996 -0.021838926 -0.02800648 -0.00069330196 -0.046791002 0.06780777
liked 0.0636396 0.06926157 0.016525516 0.0242452 0.026190786 0.07089404 -0.04187002 -0.020241711 -0.0627807 -0.10530953 0.039518144 0.043900732 -0.018212803 -0.006687365 -0.09083154 -0.056013253
supposed -0.0616471 -0.1125805 -0.0891514 -0.067601554 0.0022460942 -0.057749756 0.022167008 0.05825526 0.12098412 0.053528 -0.0747173 -0.07985606 -0.008356121 0.024367264 0.06379693 0.02880763
title 0.027378734 -0.058517978 -0.068479106 -0.030919168 0.069056295 -0.019324634 0.008434167 -0.06355049 0.003592111 0.04598874 -0.029623006 -0.06136828 0.008917711 0.02084168 -0.0050981096 -0.0043522287
couldn't -0.063041285 -0.015027939 -0.09080569 -0.009546452 0.001894057 0.012138508 -0.07195526 0.044994935 0.042804353 -0.01459276 -0.06389734 0.018760426 0.037547287 0.08750109 0.04647503 0.05571961
absolutely 0.0030294042 -0.090234175 0.06982813 0.028419938 -0.107412495 -0.10929896 0.07455912 -0.05169183 0.0756812 0.04481128 -0.089502834 -0.008247833 0.07066588 0.032078102 0.04598362 0.06734934
white 0.042826656 -0.030603994 0.10191373 0.08153552 -0.04696134 -0.017604804 0.11467429 -0.047990598 -0.03599778 -0.00803981 0.018468201 0.08618057 0.042199075 -0.013612517 -0.046627037 -0.0432322
against 0.06737362 -0.0028360528 -0.04481925 -0.033299703 0.06541541 0.10458586 -0.04238483 -0.06835713 -0.010576483 0.0013617805 0.02027642 0.062337134 -0.07262192 -0.028901633 -0.0363547 -0.052059162
boy 0.045527108 -0.01728533 -0.052537475 -0.006270556 -0.05859905 0.034570005 -0.015377667 -0.04915874 -0.03462865 -0.05439153 -0.011590629 0.03386172 -0.025444705 -0.074898474 -0.057874113 -0.10036641
picture 0.025491497 -0.05650427 -0.008825461 -0.08426482 -0.014730547 -0.049776122 -0.0672172 0.01367499 0.017966878 0.0072194757 -0.00041871212 -0.009359955 -0.02263564 0.016081898 -0.05175096 0.01844227
sort -0.03567201 -0.024907894 -0.046992607 0.0076433984 0.04423821 0.0005210707 0.024546575 -0.044294413 -0.00081346586 -0.07203663 -0.008396963 0.0056736027 -0.030083995 -0.0016286259 -0.022117728 0.009911302
worse -0.15524493 -0.0999465 -0.07473113 -0.056214325 -0.06679836 -0.01948085 0.07583375 0.13183556 0.12832198 0.007294024 -0.06534226 -0.116193615 0.0122567285 0.10668072 0.14377844 -0.0078422595
certainly 0.09424601 -0.0007861526 0.014122743 -0.012152911 -0.009775549 -0.018699676 0.009982989 -0.023045331 -0.01665194 0.07858333 0.048416525 -0.026799304 -0.002964058 -0.043305 -0.0494628 -0.052744597
went -0.054701593 -0.0088921115 -0.068879604 -0.052840292 -0.059086703 -0.047069233 -0.0013673417 0.03931095 -0.032554917 0.025111763 0.013642641 -0.076764256 0.0012321707 0.042220224 0.035915438 0.027467277
entire -0.046046685 -0.015842596 -0.05670288 -0.06887144 -0.09295542 -0.017192462 -0.050781403 -0.03710944 0.06410434 0.049887322 -0.10904479 -0.05052619 0.11320309 0.07260364 0.082565546 0.028432703
waste -0.1921381 -0.1481199 -0.19631132 -0.22102319 0.08835888 -0.09668943 -0.17820875 0.18372099 0.20896368 0.04734441 -0.22226946 -0.10744817 0.115133636 0.2181868 0.13848698 0.1416735
cinema 0.05580769 0.06916961 0.011763268 -0.0026161855 -0.042859 -0.06022264 0.067552 -0.073511794 -0.063608795 -0.018490635 0.03454873 0.009895209 -0.08481649 0.03151912 -0.108905174 -0.10371793
problem 0.0019774288 -0.028318303 -0.040615473 -0.032769624 0.0040366873 -0.009946457 -0.0038277525 0.06440895 -0.0059484704 0.08573384 -0.085762955 -0.019570122 0.037358277 0.03130503 0.055643678 0.03613464
hope -0.0046966723 -0.016429063 -0.0054542264 -0.09054099 0.009999234 -0.02074888 -0.04366132 -0.04784948 -0.036241345 -0.0013480474 0.03279061 0.034267806 -0.053621307 -0.0056784614 -0.06889931 -0.04286671
entertaining 0.09767362 0.037687592 0.07161862 -0.009987633 0.11702131 0.08950683 -0.1284349 -0.104140334 -0.14266604 -0.064390495 0.15910557 0.09933234 -0.012088306 -0.13448553 -0.13216726 -0.15521714
she's -0.031962406 0.005736426 0.03511472 0.028839976 -0.0139136575 0.03022319 0.033380702 0.031703096 0.03837079 0.059606742 0.00057934667 -0.0160474 -0.06497354 -0.0073675755 0.06624941 0.030177431
mr 0.028098427 -0.053758256 -0.014637491 -0.07333363 0.003992437 -0.13077556 0.01678367 0.021549294 0.08399382 -0.07402185 -0.015996743 0.04615174 -0.0112056155 0.012445299 0.010779465 0.06737146
overall 0.04096051 0.017550062 0.0053987717 0.034893055 -0.088082045 -0.052101966 0.030990915 0.02194683 0.026056385 -0.03142546 -0.013261177 -0.019006146 -0.003426977 -0.031067325 -0.010175119 -0.05999931
evil 0.0031437995 0.048816465 -0.050660834 -0.06766929 0.060623676 0.034814045 -0.016441666 -0.06978721 -0.031034946 0.03482126 -0.01611012 -0.051525675 -0.01399873 0.043615725 0.050363544 0.03746926
called 0.008220448 0.041822433 0.05170977 0.014176827 -0.00052378955 -0.041337833 -0.023860766 -0.052174237 -0.043401204 -0.00360426 0.004217957 -0.013889785 -0.066196986 -0.015241819 -0.009805482 -0.05121803
loved 0.08529895 0.09056866 0.026398214 0.058256816 -0.040284183 0.06658565 -0.05786923 -0.10884435 -0.10729733 -0.10393733 0.09368946 0.11127328 -0.08754405 -0.07916986 -0.15865712 -0.048393797
based 0.031073948 0.095931716 0.020503657 0.06816113 0.02682954 0.0021279026 -0.12092915 -0.022801235 -0.03529212 -0.07892301 0.06752627 0.06576473 -0.06989784 -0.026862469 -0.061187476 -0.055064864
oh -0.09371639 -0.14480583 -0.08011501 -0.09002133 0.032987986 -0.07102067 0.07069619 0.055170864 0.011163 0.045856114 -0.08742736 -0.018794775 0.08408522 0.1051481 0.08438549 0.0722054
several 0.099094115 0.010083954 -0.030776022 -0.0013659444 0.06932161 0.027477654 0.03511721 -0.015963731 0.033519145 -0.020600282 0.005778878 0.0837393 -0.043458764 -0.010038522 -0.09414469 -0.014484057
fans 0.09627368 0.031466488 0.007672771 -0.00061012205 0.08927475 0.054070313 -0.064795345 -0.14160472 -0.020243943 -0.066488564 0.08926291 0.07529127 -0.049321357 -0.098519705 -0.02142781 -0.06276909
mother -0.026428375 -0.04803876 -0.03311491 -0.009552125 0.08364824 -0.0035198815 0.07340391 0.076979056 0.04803264 0.027941268 -0.010370334 -0.06401582 0.009325695 0.046648026 0.0071580447 0.005956184
drama -0.0005628423 0.034515366 0.0902688 -0.07161422 -0.067691214 -0.049099192 -0.0061966344 -0.06928625 -0.05620323 -0.02676193 -0.01562062 -0.037514307 -0.044453703 0.036194094 0.032574568 0.07201227
beginning -0.04697634 0.053326324 0.017531836 0.023863327 0.061042856 -0.005825318 -0.054384213 0.009362708 0.08566359 -0.04451414 -0.032154635 -0.028001595 -0.06595291 -0.04375451 -0.038233656 0.027020875
killer 0.014495631 0.008570807 0.011296126 0.078783385 -0.06558969 -0.0453526 0.056356184 -0.1087613 -0.010330834 -0.07293511 -0.026972314 -0.03610416 -0.01257081 -0.023106001 0.024699636 -0.04026867
lives -0.026923025 0.053877413 -0.011990234 0.044742677 -0.034443583 -0.011116097 0.064713925 -0.056003377 0.03391151 -0.03624019 0.05654005 -0.020065138 0.013225569 -0.0026725566 -0.005870676 0.006412083
5 -0.007076278 -0.013412402 0.02022201 -0.014534286 0.06679224 0.01069699 0.014076406 0.013950366 -0.025944572 -0.015583067 -0.06041233 -0.038733035 0.021792382 0.007461638 -0.0059013097 0.0043075355
direction -0.09300834 0.014463008 0.0062026074 -0.05400713 0.06478104 -0.055377208 -0.014896576 0.04318454 -0.0021696296 0.030082706 -0.017380005 -0.028767245 0.00072663766 -0.036216214 0.023177199 -0.027325064
care -0.06622292 -0.041821513 0.0004408594 -0.032091156 -0.01842801 -0.02243291 0.023686696 0.040487897 0.07357457 0.06182973 -0.04228492 -0.065505445 0.03041068 0.105971545 0.09323873 0.043317866
already -0.026752494 0.04817442 -0.010263429 -0.06620212 0.025067499 -0.022439562 -0.05451137 0.03118248 0.012672494 -0.0047639026 -0.04193918 -0.03740539 -0.040063072 0.062805615 0.051138364 -0.01803763
becomes 0.0100652445 -0.02909735 0.020467583 -0.044940334 0.0025088878 -0.0020084924 0.012198222 -0.007625727 -0.060106095 0.031547062 -0.030204305 0.021475913 -0.06817199 -0.005589063 -0.022472145 -0.062366467
laugh -0.010087087 0.041184597 -0.0024493597 -0.032643326 -0.061688673 -0.037464667 0.00018345163 -0.05808323 0.004234513 -0.057564467 -0.0712417 0.032075938 -0.032918934 -0.040833037 -0.026661798 -0.0014126315
example -0.0447462 -0.043688837 -0.028393073 -0.01919483 0.0888929 0.030151008 0.055721655 -0.050377063 0.049321573 0.0871626 -0.073726185 -0.046962976 0.056086183 -0.023294378 0.02022476 0.04273138
friend 0.0054472373 -0.020705262 -0.08751918 -0.030291917 -0.060078282 -0.06854847 0.027113214 0.04595852 -0.015251258 0.07614777 -0.05042338 -0.0450719 -0.00545494 0.09271543 -0.0056140246 -0.03396918
dark 0.124250636 0.027412605 0.06094205 0.06641497 0.008678166 -0.018674435 -0.017154014 -0.10813733 -0.017321438 -0.019516269 0.00988397 0.021058423 0.03952927 -0.028041556 -0.11360731 -0.028052984
despite 0.043286353 0.0063848034 0.0037155258 -0.007104562 0.08528679 0.016523 0.021695552 0.027192134 0.040987775 0.08797793 -0.06678403 -0.004635499 -0.04843877 -0.006099253 0.0631761 0.041079637
under 0.037567127 0.055420082 0.07041675 0.0189995 0.0010524887 0.041574605 -0.013188 0.0365142 -0.0074470015 0.058922753 -0.0030877765 0.046929944 -0.009665579 0.05117578 -0.04862571 0.045908652
seemed -0.05213358 -0.022654673 -0.055975933 -0.004590672 0.09612044 -0.034770373 0.12527235 -0.028657248 0.02246131 0.020562792 0.013498922 -0.06523954 0.009803579 0.0047065276 0.033725735 -0.0558366
throughout 0.109415814 0.07345608 0.058368303 0.02119347 0.051546168 0.0075089764 -0.057493657 -0.0061478736 -0.08440833 -0.0127321705 -0.024994394 0.047291003 -0.013571013 -0.06744368 -0.08024522 0.009758754
4 -0.086358815 -0.063307665 -0.06927712 -0.0066820076 0.042071868 -0.050391015 -0.051575188 0.059658557 0.024291039 -0.029232783 -0.014955143 -0.033806805 0.04222055 0.011940506 0.092716396 0.06441287
turn -0.062269308 -0.01338744 -0.0024533025 0.040357355 0.02838178 0.008456915 0.10381718 0.0099135395 0.10684744 0.0607193 -0.090227015 -0.009108657 0.008900638 0.035992797 0.023378242 0.06587814
unfortunately -0.12209621 -0.06498398 -0.097166345 0.023362499 0.040997878 -0.033123307 -0.053430073 0.06626144 0.11825593 0.1032696 -0.05669421 -0.12215345 0.023185503 0.105149776 0.099814504 0.11797094
wanted 0.022904502 -0.022882104 0.014613589 -0.014404162 0.065442525 0.050984044 0.013703194 0.051230673 -0.035268124 0.004278916 0.082898356 0.042641122 -0.025992002 0.0132823 0.0033873136 -0.047815073
i'd 0.034068182 -0.03184241 0.048667215 0.028760394 0.05806465 0.018202227 -0.06901007 0.005686728 0.0053830366 -0.026435096 0.013553141 0.038122986 0.0046296264 0.02781506 -0.02858756 0.03621776
 -0.032038156 -0.04343858 -0.032764662 0.00041174836 0.032656204 0.047937915 0.06582567 0.03645209 -0.037110195 -0.021333378 -0.0196416 -0.0060801725 -0.05305875 -0.0073206304 0.011418375 0.024695266
children 0.014014896 0.022361457 -0.00347381 0.01918094 0.032560203 0.0065415595 0.034260515 0.045480054 0.019073218 -0.0079091955 0.037922528 -0.05356408 0.053769566 -0.046280526 0.027558979 0.021439044
final -0.0014500108 -0.018682051 0.070973516 0.026780486 -0.023209762 -0.010937774 -0.026135422 -0.030055 -0.02402725 -0.066346355 0.038592782 0.05878129 -0.015745454 -0.051500164 -0.077065125 -0.028565861
fine 0.049562804 0.02971087 0.08690211 0.016402561 -0.011973751 -0.03097505 0.03658422 -0.055468246 -0.09048189 -0.10272269 0.11258598 0.023704542 -0.04282136 0.0114068845 -0.011532101 -0.05517952
history 0.0426189 0.004215514 0.04718318 0.020500531 -0.01125063 0.03909059 -0.007090565 0.0425587 -0.06939031 -0.03405737 -0.027907366 0.089253366 -0.08012305 0.047690317 -0.0801528 -0.09597011
amazing 0.1429419 0.09703734 0.0720375 0.08776335 -0.054235205 0.021281062 -0.105220675 -0.13968647 0.010251312 -0.06482179 0.12306146 0.14033625 0.017977614 -0.061953437 -0.1584571 -0.093139805
sound 0.046721317 0.013703326 0.015523633 0.13213746 -0.08412553 0.07524819 -0.0050040474 -0.049445774 -0.081873074 -0.030651683 -0.024269368 0.015288012 -0.044842727 -0.016554167 -0.012436966 -0.044089966
guess -0.09113395 -0.09879017 -0.0778261 0.009088922 -0.025866227 -0.0007658009 0.032235786 -0.011740801 0.082948714 0.123930104 -0.022591388 -0.072196186 -0.0012901144 0.056877404 0.053580143 0.014521601
heart 0.13291757 0.055968363 0.13785776 -0.0082206195 0.049645416 -0.09722412 0.0713138 -0.054801088 -0.04344635 -0.08282712 0.058056 0.11420666 -0.046066027 -0.07825968 -0.13917737 -0.14840512
totally 0.052476887 -0.0113717215 0.05643863 0.052765563 -0.14684393 0.0006735253 -0.022486476 -0.0071411715 0.0065535186 -0.049065817 -0.0017041363 -0.009992544 0.010978957 -0.061962884 -0.033104055 0.018593175
lead -0.01510292 0.049833152 0.028489022 -0.048365653 0.038252633 0.02136726 0.026851872 0.029009182 0.016656991 -0.0061131236 0.03053006 0.022655703 0.014379962 0.039049216 -0.027861834 -0.014786752
humor 0.051156487 0.04856774 0.014009804 0.07396306 -0.021726111 0.0071340287 -0.028707003 -0.08081734 -0.010518354 -0.083641514 0.08056211 0.075621724 0.045633204 -0.0174007 0.001751901 -0.043913506
writing -0.025923362 -0.025346637 -0.028557831 -0.03865783 0.047805347 -0.030708304 -0.053380225 0.07170119 0.0767146 -0.052895457 -0.021787632 0.0041258223 0.10587875 0.025425974 0.08193997 0.008307788
michael 0.04257242 0.0015886677 -0.014435488 -0.0057064374 0.014194748 -0.072949156 0.006509614 -0.027023323 -0.0072751967 0.021909997 0.031104958 0.08146912 0.0104765305 -0.02608413 -0.07876369 -0.017529257
quality -0.020461012 -0.018242108 -0.030140148 0.10312032 -0.029452533 0.09654019 -0.060580865 -0.030402355 0.03169573 0.010206749 0.006399811 0.025676249 0.02288577 -0.010166693 -0.0052390196 0.0028979734
you'll -0.00046031526 0.00538703 0.034118913 -0.033498205 0.0018725723 0.08930998 0.0080951825 0.043711137 -0.011938641 0.026812933 0.05266811 0.044035573 -0.016436556 0.000338446 -0.022777744 0.0055556484
close 0.011466464 -0.0029182301 0.029723814 0.103738695 -0.08718832 0.07043952 -0.016523913 -0.037027802 0.01469064 -0.058192246 0.009270795 0.046562012 -0.011965665 -0.052982852 -0.048197635 -0.064768344
son 0.0019722471 0.05591687 0.024254236 0.033118207 -0.07368944 0.06311029 -0.06011187 0.048603307 -0.00811362 0.03343195 0.005366745 0.011181568 0.027293464 0.031361595 -0.046067096 -0.027649635
guys 0.029177599 -0.008354547 0.044505104 -0.051863544 -0.054888614 0.0032183183 0.036799014 0.03688541 -0.066575706 -0.054398797 0.028055718 0.036501665 -0.06946168 -0.08061098 -0.016146598 -0.045722745
wants -0.020895075 -0.055220287 -0.017286656 -0.0033829266 -0.015726736 -0.069687426 -0.012598135 0.0027084865 -0.016514083 0.056436718 -0.061225142 0.0057423282 0.02061024 0.017482476 -0.033724166 0.008848121
works 0.027576998 0.036103185 0.058234736 0.019829368 0.014150909 0.03431891 -0.008936943 0.06661125 -0.06865973 -0.06160002 0.037578132 0.03776294 0.09172978 -0.014283234 -0.07349932 -0.0788325
behind 0.03030626 0.040541396 0.057692092 0.0032177067 0.065080985 0.063852586 0.012084194 -0.013469952 -0.029250504 -0.015518156 0.05783406 -0.039554153 -0.055582713 -0.021022156 0.012578203 0.010062504
tries -0.107593305 -0.05875717 -0.07841551 -0.03186667 -0.031154184 -0.06426396 0.11007273 0.049518846 0.028073441 0.046818998 -0.11058997 -0.12664515 0.1006377 0.06355849 0.07911768 0.0145711815
art 0.06570466 0.009713065 -0.0018132175 0.027335996 -0.03216829 -0.023901954 -0.045431186 0.007963989 -0.070064776 -0.03935681 0.040878475 0.06532823 0.0037667053 -0.019243732 0.02408704 -0.011355971
side 0.001712124 -0.0032584926 -0.05696281 0.043757826 -0.056375396 -0.053264707 0.05259181 -0.023090515 0.015638469 0.02177181 -0.008717843 -0.062639065 0.03445735 0.075477 -0.0155028915 0.04883526
